<?xml version="1.0"?>
<MethodSetup Method="BDT::BDTG">
  <GeneralInfo>
    <Info name="TMVA Release" value="4.2.1 [262657]"/>
    <Info name="ROOT Release" value="6.28/00 [400384]"/>
    <Info name="Creator" value="sandeeppradhan"/>
    <Info name="Date" value="Tue Aug 19 00:11:52 2025"/>
    <Info name="Host" value="Darwin ChristohersMBP3.localdomain 22.3.0 Darwin Kernel Version 22.3.0: Mon Jan 30 20:38:37 PST 2023; root:xnu-8792.81.3~2/RELEASE_ARM64_T6000 arm64"/>
    <Info name="Dir" value="/Users/sandeeppradhan/Desktop/VBF_Analysis_Folder/DNN_RESULTS/MClass_DNN_VBF"/>
    <Info name="Training events" value="215019"/>
    <Info name="TrainingTime" value="5.76011159e+01"/>
    <Info name="AnalysisType" value="Classification"/>
  </GeneralInfo>
  <Options>
    <Option name="V" modified="Yes">False</Option>
    <Option name="VerbosityLevel" modified="No">Default</Option>
    <Option name="VarTransform" modified="No">None</Option>
    <Option name="H" modified="Yes">False</Option>
    <Option name="CreateMVAPdfs" modified="No">False</Option>
    <Option name="IgnoreNegWeightsInTraining" modified="No">False</Option>
    <Option name="NTrees" modified="Yes">850</Option>
    <Option name="MaxDepth" modified="No">3</Option>
    <Option name="MinNodeSize" modified="No">5%</Option>
    <Option name="nCuts" modified="Yes">15</Option>
    <Option name="BoostType" modified="Yes">Grad</Option>
    <Option name="AdaBoostR2Loss" modified="No">quadratic</Option>
    <Option name="UseBaggedBoost" modified="Yes">True</Option>
    <Option name="Shrinkage" modified="Yes">1.000000e-01</Option>
    <Option name="AdaBoostBeta" modified="No">5.000000e-01</Option>
    <Option name="UseRandomisedTrees" modified="No">False</Option>
    <Option name="UseNvars" modified="No">4</Option>
    <Option name="UsePoissonNvars" modified="No">True</Option>
    <Option name="BaggedSampleFraction" modified="Yes">5.000000e-01</Option>
    <Option name="UseYesNoLeaf" modified="No">True</Option>
    <Option name="NegWeightTreatment" modified="No">pray</Option>
    <Option name="Css" modified="No">1.000000e+00</Option>
    <Option name="Cts_sb" modified="No">1.000000e+00</Option>
    <Option name="Ctb_ss" modified="No">1.000000e+00</Option>
    <Option name="Cbb" modified="No">1.000000e+00</Option>
    <Option name="NodePurityLimit" modified="No">5.000000e-01</Option>
    <Option name="SeparationType" modified="No">giniindex</Option>
    <Option name="RegressionLossFunctionBDTG" modified="No">huber</Option>
    <Option name="HuberQuantile" modified="No">7.000000e-01</Option>
    <Option name="DoBoostMonitor" modified="No">False</Option>
    <Option name="UseFisherCuts" modified="No">False</Option>
    <Option name="MinLinCorrForFisher" modified="No">8.000000e-01</Option>
    <Option name="UseExclusiveVars" modified="No">False</Option>
    <Option name="DoPreselection" modified="No">False</Option>
    <Option name="SigToBkgFraction" modified="No">1.000000e+00</Option>
    <Option name="PruneMethod" modified="No">nopruning</Option>
    <Option name="PruneStrength" modified="No">0.000000e+00</Option>
    <Option name="PruningValFraction" modified="No">5.000000e-01</Option>
    <Option name="SkipNormalization" modified="No">False</Option>
    <Option name="nEventsMin" modified="No">0</Option>
    <Option name="UseBaggedGrad" modified="No">False</Option>
    <Option name="GradBaggingFraction" modified="No">5.000000e-01</Option>
    <Option name="UseNTrainEvents" modified="No">0</Option>
    <Option name="NNodesMax" modified="No">0</Option>
  </Options>
  <Variables NVar="15">
    <Variable VarIndex="0" Expression="T_mqq" Label="T_mqq" Title="T_mqq" Unit="" Internal="T_mqq" Type="F" Min="2.00011795e+02" Max="7.59248877e+03"/>
    <Variable VarIndex="1" Expression="T_dETAqq" Label="T_dETAqq" Title="T_dETAqq" Unit="" Internal="T_dETAqq" Type="F" Min="1.50002086e+00" Max="8.86012650e+00"/>
    <Variable VarIndex="2" Expression="T_dPHIqq" Label="T_dPHIqq" Title="T_dPHIqq" Unit="" Internal="T_dPHIqq" Type="F" Min="4.05311584e-06" Max="3.14159250e+00"/>
    <Variable VarIndex="3" Expression="T_btgb1" Label="T_btgb1" Title="T_btgb1" Unit="" Internal="T_btgb1" Type="F" Min="3.81067512e-03" Max="9.99986172e-01"/>
    <Variable VarIndex="4" Expression="T_btgb2" Label="T_btgb2" Title="T_btgb2" Unit="" Internal="T_btgb2" Type="F" Min="1.25374692e-03" Max="9.99922872e-01"/>
    <Variable VarIndex="5" Expression="T_qglq1" Label="T_qglq1" Title="T_qglq1" Unit="" Internal="T_qglq1" Type="F" Min="-1.00000000e+01" Max="9.97567773e-01"/>
    <Variable VarIndex="6" Expression="T_qglq2" Label="T_qglq2" Title="T_qglq2" Unit="" Internal="T_qglq2" Type="F" Min="-1.00000000e+01" Max="9.98377264e-01"/>
    <Variable VarIndex="7" Expression="T_NJ_30" Label="T_NJ_30" Title="T_NJ_30" Unit="" Internal="T_NJ_30" Type="F" Min="0.00000000e+00" Max="9.00000000e+00"/>
    <Variable VarIndex="8" Expression="T_ptAll" Label="T_ptAll" Title="T_ptAll" Unit="" Internal="T_ptAll" Type="F" Min="1.67253256e-01" Max="1.02986157e+03"/>
    <Variable VarIndex="9" Expression="T_pzAll" Label="T_pzAll" Title="T_pzAll" Unit="" Internal="T_pzAll" Type="F" Min="-7.05432422e+03" Max="7.86358887e+03"/>
    <Variable VarIndex="10" Expression="T_E_rest_30" Label="T_E_rest_30" Title="T_E_rest_30" Unit="" Internal="T_E_rest_30" Type="F" Min="-3.00000000e+00" Max="2.37100000e+03"/>
    <Variable VarIndex="11" Expression="T_HTT_rest_30" Label="T_HTT_rest_30" Title="T_HTT_rest_30" Unit="" Internal="T_HTT_rest_30" Type="F" Min="-2.28881836e-04" Max="1.30565332e+03"/>
    <Variable VarIndex="12" Expression="T_phiA_bb_qq" Label="T_phiA_bb_qq" Title="T_phiA_bb_qq" Unit="" Internal="T_phiA_bb_qq" Type="F" Min="2.00649592e-04" Max="3.14159036e+00"/>
    <Variable VarIndex="13" Expression="T_alphaqq" Label="T_alphaqq" Title="T_alphaqq" Unit="" Internal="T_alphaqq" Type="F" Min="1.23910885e-03" Max="1.57079184e+00"/>
    <Variable VarIndex="14" Expression="T_dR_subleadqH" Label="T_dR_subleadqH" Title="T_dR_subleadqH" Unit="" Internal="T_dR_subleadqH" Type="F" Min="7.67940795e-03" Max="8.18341541e+00"/>
  </Variables>
  <Spectators NSpec="0"/>
  <Classes NClass="2">
    <Class Name="Signal" Index="0"/>
    <Class Name="Background" Index="1"/>
  </Classes>
  <Transformations NTransformations="0"/>
  <MVAPdfs/>
  <Weights NTrees="850" AnalysisType="1">
    <BinaryTree type="DecisionTree" boostWeight="1.0000000000000000e+00" itree="0">
      <Node pos="s" depth="0" NCoef="0" IVar="4" Cut="1.8855269253253937e-01" cType="1" res="3.3924283343367279e-05" rms="5.0000000000000000e-01" purity="5.0003391504287720e-01" nType="0">
        <Node pos="l" depth="1" NCoef="0" IVar="7" Cut="5.0000000000000000e-01" cType="1" res="-3.0454248189926147e-01" rms="3.9655250310897827e-01" purity="1.9545753300189972e-01" nType="0">
          <Node pos="l" depth="2" NCoef="0" IVar="1" Cut="3.1816875934600830e+00" cType="1" res="-1.8741776049137115e-01" rms="4.6354568004608154e-01" purity="3.1258222460746765e-01" nType="0">
            <Node pos="l" depth="3" NCoef="0" IVar="-1" Cut="0.0000000000000000e+00" cType="1" res="-6.8826653063297272e-02" rms="3.6272895336151123e-01" purity="1.5586671233177185e-01" nType="-99"/>
            <Node pos="r" depth="3" NCoef="0" IVar="-1" Cut="0.0000000000000000e+00" cType="1" res="-1.0934392921626568e-03" rms="4.9997010827064514e-01" purity="4.9453282356262207e-01" nType="-99"/>
          </Node>
          <Node pos="r" depth="2" NCoef="0" IVar="3" Cut="8.7555336952209473e-01" cType="1" res="-4.1971713304519653e-01" rms="2.7173063158988953e-01" purity="8.0282874405384064e-02" nType="0">
            <Node pos="l" depth="3" NCoef="0" IVar="-1" Cut="0.0000000000000000e+00" cType="1" res="-9.4426706433296204e-02" rms="1.6459020972251892e-01" purity="2.7866477146744728e-02" nType="-99"/>
            <Node pos="r" depth="3" NCoef="0" IVar="-1" Cut="0.0000000000000000e+00" cType="1" res="-7.1101814508438110e-02" rms="3.5158681869506836e-01" purity="1.4449092745780945e-01" nType="-99"/>
          </Node>
        </Node>
        <Node pos="r" depth="1" NCoef="0" IVar="0" Cut="6.4435632324218750e+02" cType="1" res="1.1997637152671814e-01" rms="4.8539227247238159e-01" purity="6.1997634172439575e-01" nType="0">
          <Node pos="l" depth="2" NCoef="0" IVar="5" Cut="3.0364525318145752e-01" cType="1" res="-1.1089822649955750e-01" rms="4.8754650354385376e-01" purity="3.8910177350044250e-01" nType="0">
            <Node pos="l" depth="3" NCoef="0" IVar="-1" Cut="0.0000000000000000e+00" cType="1" res="-5.1966652274131775e-02" rms="4.2718458175659180e-01" purity="2.4016673862934113e-01" nType="-99"/>
            <Node pos="r" depth="3" NCoef="0" IVar="-1" Cut="0.0000000000000000e+00" cType="1" res="-6.6285155480727553e-04" rms="4.9998900294303894e-01" purity="4.9668574333190918e-01" nType="-99"/>
          </Node>
          <Node pos="r" depth="2" NCoef="0" IVar="7" Cut="5.0000000000000000e-01" cType="1" res="2.3811841011047363e-01" rms="4.3965852260589600e-01" purity="7.3811841011047363e-01" nType="0">
            <Node pos="l" depth="3" NCoef="0" IVar="-1" Cut="0.0000000000000000e+00" cType="1" res="7.3915675282478333e-02" rms="3.3676671981811523e-01" purity="8.6957842111587524e-01" nType="-99"/>
            <Node pos="r" depth="3" NCoef="0" IVar="-1" Cut="0.0000000000000000e+00" cType="1" res="-1.1725280201062560e-03" rms="4.9996563792228699e-01" purity="4.9413734674453735e-01" nType="-99"/>
          </Node>
        </Node>
      </Node>
    </BinaryTree>
    <BinaryTree type="DecisionTree" boostWeight="1.0000000000000000e+00" itree="1">
      <Node pos="s" depth="0" NCoef="0" IVar="4" Cut="2.5092104077339172e-01" cType="1" res="-1.2016765540465713e-03" rms="4.8402521014213562e-01" purity="4.9868476390838623e-01" nType="0">
        <Node pos="l" depth="1" NCoef="0" IVar="7" Cut="5.0000000000000000e-01" cType="1" res="-2.5137805938720703e-01" rms="4.0680071711540222e-01" purity="2.2250966727733612e-01" nType="0">
          <Node pos="l" depth="2" NCoef="0" IVar="1" Cut="3.6019358634948730e+00" cType="1" res="-1.3467928767204285e-01" rms="4.6878024935722351e-01" purity="3.5108911991119385e-01" nType="0">
            <Node pos="l" depth="3" NCoef="0" IVar="-1" Cut="0.0000000000000000e+00" cType="1" res="-5.5657342076301575e-02" rms="3.9455378055572510e-01" purity="1.9648815691471100e-01" nType="-99"/>
            <Node pos="r" depth="3" NCoef="0" IVar="-1" Cut="0.0000000000000000e+00" cType="1" res="1.8863871693611145e-02" rms="4.8747354745864868e-01" purity="5.9936565160751343e-01" nType="-99"/>
          </Node>
          <Node pos="r" depth="2" NCoef="0" IVar="3" Cut="9.3775564432144165e-01" cType="1" res="-3.6883673071861267e-01" rms="2.8872403502464294e-01" purity="9.3092940747737885e-02" nType="0">
            <Node pos="l" depth="3" NCoef="0" IVar="-1" Cut="0.0000000000000000e+00" cType="1" res="-8.2257561385631561e-02" rms="2.1485809981822968e-01" purity="4.8978563398122787e-02" nType="-99"/>
            <Node pos="r" depth="3" NCoef="0" IVar="-1" Cut="0.0000000000000000e+00" cType="1" res="-6.3065946102142334e-02" rms="3.6096480488777161e-01" purity="1.5487883985042572e-01" nType="-99"/>
          </Node>
        </Node>
        <Node pos="r" depth="1" NCoef="0" IVar="12" Cut="2.9452736377716064e+00" cType="1" res="1.1695808172225952e-01" rms="4.7249284386634827e-01" purity="6.2912392616271973e-01" nType="0">
          <Node pos="l" depth="2" NCoef="0" IVar="1" Cut="4.5840568542480469e+00" cType="1" res="-1.1107010394334793e-01" rms="4.8187226057052612e-01" purity="3.9029428362846375e-01" nType="0">
            <Node pos="l" depth="3" NCoef="0" IVar="-1" Cut="0.0000000000000000e+00" cType="1" res="-3.7394385784864426e-02" rms="4.5750963687896729e-01" purity="3.1218826770782471e-01" nType="-99"/>
            <Node pos="r" depth="3" NCoef="0" IVar="-1" Cut="0.0000000000000000e+00" cType="1" res="1.6733689233660698e-02" rms="4.8837092518806458e-01" purity="5.9132301807403564e-01" nType="-99"/>
          </Node>
          <Node pos="r" depth="2" NCoef="0" IVar="1" Cut="3.2418220043182373e+00" cType="1" res="2.1860858798027039e-01" rms="4.3098393082618713e-01" purity="7.3558950424194336e-01" nType="0">
            <Node pos="l" depth="3" NCoef="0" IVar="-1" Cut="0.0000000000000000e+00" cType="1" res="3.1920452602207661e-03" rms="4.9420794844627380e-01" purity="5.1474666595458984e-01" nType="-99"/>
            <Node pos="r" depth="3" NCoef="0" IVar="-1" Cut="0.0000000000000000e+00" cType="1" res="6.6429831087589264e-02" rms="3.4361732006072998e-01" purity="8.5779076814651489e-01" nType="-99"/>
          </Node>
        </Node>
      </Node>
    </BinaryTree>
    <BinaryTree type="DecisionTree" boostWeight="1.0000000000000000e+00" itree="2">
      <Node pos="s" depth="0" NCoef="0" IVar="4" Cut="3.7594595551490784e-01" cType="1" res="1.3014068827033043e-03" rms="4.7036173939704895e-01" purity="5.0112205743789673e-01" nType="0">
        <Node pos="l" depth="1" NCoef="0" IVar="3" Cut="6.8884366750717163e-01" cType="1" res="-2.0033638179302216e-01" rms="4.1712963581085205e-01" purity="2.5706014037132263e-01" nType="0">
          <Node pos="l" depth="2" NCoef="0" IVar="3" Cut="3.0378362536430359e-01" cType="1" res="-3.5251152515411377e-01" rms="2.7097165584564209e-01" purity="8.8089130818843842e-02" nType="0">
            <Node pos="l" depth="3" NCoef="0" IVar="-1" Cut="0.0000000000000000e+00" cType="1" res="-8.1587478518486023e-02" rms="1.7890121042728424e-01" purity="3.4538727253675461e-02" nType="-99"/>
            <Node pos="r" depth="3" NCoef="0" IVar="-1" Cut="0.0000000000000000e+00" cType="1" res="-5.8269478380680084e-02" rms="3.5307177901268005e-01" purity="1.6396278142929077e-01" nType="-99"/>
          </Node>
          <Node pos="r" depth="2" NCoef="0" IVar="0" Cut="1.0173030395507812e+03" cType="1" res="-1.1401281505823135e-01" rms="4.5875889062881470e-01" purity="3.5291141271591187e-01" nType="0">
            <Node pos="l" depth="3" NCoef="0" IVar="-1" Cut="0.0000000000000000e+00" cType="1" res="-4.2788144201040268e-02" rms="4.1867068409919739e-01" purity="2.4413467943668365e-01" nType="-99"/>
            <Node pos="r" depth="3" NCoef="0" IVar="-1" Cut="0.0000000000000000e+00" cType="1" res="1.4646689407527447e-02" rms="4.7435417771339417e-01" purity="5.6159681081771851e-01" nType="-99"/>
          </Node>
        </Node>
        <Node pos="r" depth="1" NCoef="0" IVar="0" Cut="6.6209063720703125e+02" cType="1" res="1.2075714021921158e-01" rms="4.5920774340629578e-01" purity="6.4571100473403931e-01" nType="0">
          <Node pos="l" depth="2" NCoef="0" IVar="7" Cut="3.7500000000000000e-01" cType="1" res="-7.3631383478641510e-02" rms="4.8561298847198486e-01" purity="4.1492998600006104e-01" nType="0">
            <Node pos="l" depth="3" NCoef="0" IVar="-1" Cut="0.0000000000000000e+00" cType="1" res="2.8841837774962187e-03" rms="4.9348840117454529e-01" purity="5.0770324468612671e-01" nType="-99"/>
            <Node pos="r" depth="3" NCoef="0" IVar="-1" Cut="0.0000000000000000e+00" cType="1" res="-4.3620146811008453e-02" rms="4.3574970960617065e-01" purity="2.6334479451179504e-01" nType="-99"/>
          </Node>
          <Node pos="r" depth="2" NCoef="0" IVar="7" Cut="4.3750000000000000e-01" cType="1" res="2.2209930419921875e-01" rms="4.0975028276443481e-01" purity="7.6602590084075928e-01" nType="0">
            <Node pos="l" depth="3" NCoef="0" IVar="-1" Cut="0.0000000000000000e+00" cType="1" res="6.5316222608089447e-02" rms="3.1734088063240051e-01" purity="8.8323563337326050e-01" nType="-99"/>
            <Node pos="r" depth="3" NCoef="0" IVar="-1" Cut="0.0000000000000000e+00" cType="1" res="5.4284022189676762e-03" rms="4.9265569448471069e-01" purity="5.3545171022415161e-01" nType="-99"/>
          </Node>
        </Node>
      </Node>
    </BinaryTree>
    <BinaryTree type="DecisionTree" boostWeight="1.0000000000000000e+00" itree="3">
      <Node pos="s" depth="0" NCoef="0" IVar="12" Cut="2.9453055858612061e+00" cType="1" res="-1.3566146371886134e-03" rms="4.5906290411949158e-01" purity="4.9832278490066528e-01" nType="0">
        <Node pos="l" depth="1" NCoef="0" IVar="4" Cut="4.3819063901901245e-01" cType="1" res="-1.8658138811588287e-01" rms="4.2227214574813843e-01" purity="2.7101284265518188e-01" nType="0">
          <Node pos="l" depth="2" NCoef="0" IVar="3" Cut="7.5092536211013794e-01" cType="1" res="-2.8171125054359436e-01" rms="3.3685877919197083e-01" purity="1.4369671046733856e-01" nType="0">
            <Node pos="l" depth="3" NCoef="0" IVar="-1" Cut="0.0000000000000000e+00" cType="1" res="-7.3542952537536621e-02" rms="2.1011316776275635e-01" purity="4.8929676413536072e-02" nType="-99"/>
            <Node pos="r" depth="3" NCoef="0" IVar="-1" Cut="0.0000000000000000e+00" cType="1" res="-4.7098856419324875e-02" rms="3.9738401770591736e-01" purity="2.1275414526462555e-01" nType="-99"/>
          </Node>
          <Node pos="r" depth="2" NCoef="0" IVar="0" Cut="9.0837463378906250e+02" cType="1" res="-8.3299286663532257e-02" rms="4.7772148251533508e-01" purity="4.0923941135406494e-01" nType="0">
            <Node pos="l" depth="3" NCoef="0" IVar="-1" Cut="0.0000000000000000e+00" cType="1" res="-3.5617895424365997e-02" rms="4.4905811548233032e-01" purity="2.9607304930686951e-01" nType="-99"/>
            <Node pos="r" depth="3" NCoef="0" IVar="-1" Cut="0.0000000000000000e+00" cType="1" res="9.6141817048192024e-03" rms="4.8579967021942139e-01" purity="5.6784158945083618e-01" nType="-99"/>
          </Node>
        </Node>
        <Node pos="r" depth="1" NCoef="0" IVar="1" Cut="2.8063945770263672e+00" cType="1" res="1.0877298563718796e-01" rms="4.4439899921417236e-01" purity="6.3347506523132324e-01" nType="0">
          <Node pos="l" depth="2" NCoef="0" IVar="5" Cut="2.8803852200508118e-01" cType="1" res="-1.2976278364658356e-01" rms="4.5504924654960632e-01" purity="3.3336547017097473e-01" nType="0">
            <Node pos="l" depth="3" NCoef="0" IVar="-1" Cut="0.0000000000000000e+00" cType="1" res="-5.3585086017847061e-02" rms="3.7912458181381226e-01" purity="1.8466767668724060e-01" nType="-99"/>
            <Node pos="r" depth="3" NCoef="0" IVar="-1" Cut="0.0000000000000000e+00" cType="1" res="-8.8634546846151352e-03" rms="4.7859117388725281e-01" purity="4.2926055192947388e-01" nType="-99"/>
          </Node>
          <Node pos="r" depth="2" NCoef="0" IVar="4" Cut="1.2682105600833893e-01" cType="1" res="2.0360004901885986e-01" rms="4.0257981419563293e-01" purity="7.5278007984161377e-01" nType="0">
            <Node pos="l" depth="3" NCoef="0" IVar="-1" Cut="0.0000000000000000e+00" cType="1" res="-1.7064979299902916e-02" rms="4.6140381693840027e-01" purity="3.6547389626502991e-01" nType="-99"/>
            <Node pos="r" depth="3" NCoef="0" IVar="-1" Cut="0.0000000000000000e+00" cType="1" res="5.1359318196773529e-02" rms="3.7199386954307556e-01" purity="8.1534332036972046e-01" nType="-99"/>
          </Node>
        </Node>
      </Node>
    </BinaryTree>
    <BinaryTree type="DecisionTree" boostWeight="1.0000000000000000e+00" itree="4">
      <Node pos="s" depth="0" NCoef="0" IVar="4" Cut="1.8850420415401459e-01" cType="1" res="-1.8258686177432537e-03" rms="4.4843450188636780e-01" purity="4.9814599752426147e-01" nType="0">
        <Node pos="l" depth="1" NCoef="0" IVar="1" Cut="4.5362935066223145e+00" cType="1" res="-2.1043473482131958e-01" rms="3.7155073881149292e-01" purity="1.9337321817874908e-01" nType="0">
          <Node pos="l" depth="2" NCoef="0" IVar="3" Cut="9.3776094913482666e-01" cType="1" res="-2.5439766049385071e-01" rms="3.3365723490715027e-01" purity="1.4064788818359375e-01" nType="0">
            <Node pos="l" depth="3" NCoef="0" IVar="-1" Cut="0.0000000000000000e+00" cType="1" res="-6.5744340419769287e-02" rms="2.4934065341949463e-01" purity="7.2335176169872284e-02" nType="-99"/>
            <Node pos="r" depth="3" NCoef="0" IVar="-1" Cut="0.0000000000000000e+00" cType="1" res="-3.7289742380380630e-02" rms="4.1227695345878601e-01" purity="2.3532080650329590e-01" nType="-99"/>
          </Node>
          <Node pos="r" depth="2" NCoef="0" IVar="-1" Cut="0.0000000000000000e+00" cType="1" res="-8.5321757942438126e-03" rms="4.5256599783897400e-01" purity="3.9621829986572266e-01" nType="-99"/>
        </Node>
        <Node pos="r" depth="1" NCoef="0" IVar="7" Cut="1.5000000000000000e+00" cType="1" res="8.0093085765838623e-02" rms="4.4950023293495178e-01" purity="6.1782771348953247e-01" nType="0">
          <Node pos="l" depth="2" NCoef="0" IVar="0" Cut="6.6224084472656250e+02" cType="1" res="1.2573657929897308e-01" rms="4.3585568666458130e-01" purity="6.7148804664611816e-01" nType="0">
            <Node pos="l" depth="3" NCoef="0" IVar="-1" Cut="0.0000000000000000e+00" cType="1" res="-1.0186774656176567e-02" rms="4.8020228743553162e-01" purity="4.2322057485580444e-01" nType="-99"/>
            <Node pos="r" depth="3" NCoef="0" IVar="-1" Cut="0.0000000000000000e+00" cType="1" res="4.5867051929235458e-02" rms="3.7765237689018250e-01" purity="8.0461800098419189e-01" nType="-99"/>
          </Node>
          <Node pos="r" depth="2" NCoef="0" IVar="-1" Cut="0.0000000000000000e+00" cType="1" res="-5.4998051375150681e-02" rms="3.9398285746574402e-01" purity="2.0395423471927643e-01" nType="-99"/>
        </Node>
      </Node>
    </BinaryTree>
    <BinaryTree type="DecisionTree" boostWeight="1.0000000000000000e+00" itree="5">
      <Node pos="s" depth="0" NCoef="0" IVar="7" Cut="5.6250000000000000e-01" cType="1" res="-4.0904544293880463e-03" rms="4.3935692310333252e-01" purity="4.9518203735351562e-01" nType="0">
        <Node pos="l" depth="1" NCoef="0" IVar="0" Cut="6.6204162597656250e+02" cType="1" res="9.9478133022785187e-02" rms="4.2578727006912231e-01" purity="6.3987934589385986e-01" nType="0">
          <Node pos="l" depth="2" NCoef="0" IVar="4" Cut="3.1365251541137695e-01" cType="1" res="-7.0601522922515869e-02" rms="4.6063089370727539e-01" purity="3.7548196315765381e-01" nType="0">
            <Node pos="l" depth="3" NCoef="0" IVar="-1" Cut="0.0000000000000000e+00" cType="1" res="-4.2888183146715164e-02" rms="3.7731739878654480e-01" purity="1.8276321887969971e-01" nType="-99"/>
            <Node pos="r" depth="3" NCoef="0" IVar="-1" Cut="0.0000000000000000e+00" cType="1" res="2.5832478422671556e-03" rms="4.8851585388183594e-01" purity="4.9798583984375000e-01" nType="-99"/>
          </Node>
          <Node pos="r" depth="2" NCoef="0" IVar="4" Cut="1.2608388066291809e-01" cType="1" res="2.0245283842086792e-01" rms="3.6671131849288940e-01" purity="7.9995864629745483e-01" nType="0">
            <Node pos="l" depth="3" NCoef="0" IVar="-1" Cut="0.0000000000000000e+00" cType="1" res="-4.2095598764717579e-03" rms="4.7299617528915405e-01" purity="4.2255255579948425e-01" nType="-99"/>
            <Node pos="r" depth="3" NCoef="0" IVar="-1" Cut="0.0000000000000000e+00" cType="1" res="5.1910832524299622e-02" rms="3.2958027720451355e-01" purity="8.6602509021759033e-01" nType="-99"/>
          </Node>
        </Node>
        <Node pos="r" depth="1" NCoef="0" IVar="4" Cut="4.3911936879158020e-01" cType="1" res="-1.5613803267478943e-01" rms="4.1400915384292603e-01" purity="2.8275403380393982e-01" nType="0">
          <Node pos="l" depth="2" NCoef="0" IVar="7" Cut="1.5000000000000000e+00" cType="1" res="-2.5068065524101257e-01" rms="3.1853839755058289e-01" purity="1.3148541748523712e-01" nType="0">
            <Node pos="l" depth="3" NCoef="0" IVar="-1" Cut="0.0000000000000000e+00" cType="1" res="-4.5031264424324036e-02" rms="3.5879912972450256e-01" purity="1.7878140509128571e-01" nType="-99"/>
            <Node pos="r" depth="3" NCoef="0" IVar="-1" Cut="0.0000000000000000e+00" cType="1" res="-6.7995443940162659e-02" rms="2.2783264517784119e-01" purity="5.7117909193038940e-02" nType="-99"/>
          </Node>
          <Node pos="r" depth="2" NCoef="0" IVar="7" Cut="1.4375000000000000e+00" cType="1" res="-6.6209763288497925e-02" rms="4.7046560049057007e-01" purity="4.2663964629173279e-01" nType="0">
            <Node pos="l" depth="3" NCoef="0" IVar="-1" Cut="0.0000000000000000e+00" cType="1" res="1.5401463024318218e-03" rms="4.7724178433418274e-01" purity="5.1652997732162476e-01" nType="-99"/>
            <Node pos="r" depth="3" NCoef="0" IVar="-1" Cut="0.0000000000000000e+00" cType="1" res="-4.7292698174715042e-02" rms="4.0838193893432617e-01" purity="2.2368639707565308e-01" nType="-99"/>
          </Node>
        </Node>
      </Node>
    </BinaryTree>
    <BinaryTree type="DecisionTree" boostWeight="1.0000000000000000e+00" itree="6">
      <Node pos="s" depth="0" NCoef="0" IVar="7" Cut="5.6250000000000000e-01" cType="1" res="1.0264207376167178e-03" rms="4.3199732899665833e-01" purity="5.0007021427154541e-01" nType="0">
        <Node pos="l" depth="1" NCoef="0" IVar="1" Cut="3.2009899616241455e+00" cType="1" res="9.2936277389526367e-02" rms="4.1968116164207458e-01" purity="6.4225560426712036e-01" nType="0">
          <Node pos="l" depth="2" NCoef="0" IVar="5" Cut="2.9148674011230469e-01" cType="1" res="-5.3538873791694641e-02" rms="4.5910930633544922e-01" purity="3.9450609683990479e-01" nType="0">
            <Node pos="l" depth="3" NCoef="0" IVar="-1" Cut="0.0000000000000000e+00" cType="1" res="-3.8269564509391785e-02" rms="4.0740799903869629e-01" purity="2.3491807281970978e-01" nType="-99"/>
            <Node pos="r" depth="3" NCoef="0" IVar="-1" Cut="0.0000000000000000e+00" cType="1" res="6.0940640978515148e-03" rms="4.7151407599449158e-01" purity="4.9800136685371399e-01" nType="-99"/>
          </Node>
          <Node pos="r" depth="2" NCoef="0" IVar="12" Cut="2.9604215621948242e+00" cType="1" res="1.8876338005065918e-01" rms="3.6089473962783813e-01" purity="8.0433851480484009e-01" nType="0">
            <Node pos="l" depth="3" NCoef="0" IVar="-1" Cut="0.0000000000000000e+00" cType="1" res="4.8189512453973293e-03" rms="4.6125844120979309e-01" purity="5.6045693159103394e-01" nType="-99"/>
            <Node pos="r" depth="3" NCoef="0" IVar="-1" Cut="0.0000000000000000e+00" cType="1" res="4.9244146794080734e-02" rms="3.2520055770874023e-01" purity="8.5593801736831665e-01" nType="-99"/>
          </Node>
        </Node>
        <Node pos="r" depth="1" NCoef="0" IVar="4" Cut="5.6361430883407593e-01" cType="1" res="-1.3507626950740814e-01" rms="4.1366842389106750e-01" purity="2.8951802849769592e-01" nType="0">
          <Node pos="l" depth="2" NCoef="0" IVar="1" Cut="3.6359972953796387e+00" cType="1" res="-2.1899931132793427e-01" rms="3.3270323276519775e-01" purity="1.4890810847282410e-01" nType="0">
            <Node pos="l" depth="3" NCoef="0" IVar="-1" Cut="0.0000000000000000e+00" cType="1" res="-5.9345640242099762e-02" rms="2.6774293184280396e-01" purity="8.6314864456653595e-02" nType="-99"/>
            <Node pos="r" depth="3" NCoef="0" IVar="-1" Cut="0.0000000000000000e+00" cType="1" res="-3.3611681312322617e-02" rms="3.9388638734817505e-01" purity="2.3163916170597076e-01" nType="-99"/>
          </Node>
          <Node pos="r" depth="2" NCoef="0" IVar="1" Cut="3.7678182125091553e+00" cType="1" res="-4.0795434266328812e-02" rms="4.7139021754264832e-01" purity="4.4748198986053467e-01" nType="0">
            <Node pos="l" depth="3" NCoef="0" IVar="-1" Cut="0.0000000000000000e+00" cType="1" res="-2.9685638844966888e-02" rms="4.4607874751091003e-01" purity="3.1150767207145691e-01" nType="-99"/>
            <Node pos="r" depth="3" NCoef="0" IVar="-1" Cut="0.0000000000000000e+00" cType="1" res="1.4178529381752014e-02" rms="4.7219321131706238e-01" purity="5.9138035774230957e-01" nType="-99"/>
          </Node>
        </Node>
      </Node>
    </BinaryTree>
    <BinaryTree type="DecisionTree" boostWeight="1.0000000000000000e+00" itree="7">
      <Node pos="s" depth="0" NCoef="0" IVar="12" Cut="2.9452736377716064e+00" cType="1" res="1.4864577678963542e-03" rms="4.2460733652114868e-01" purity="5.0076240301132202e-01" nType="0">
        <Node pos="l" depth="1" NCoef="0" IVar="0" Cut="1.0178712158203125e+03" cType="1" res="-1.4001445472240448e-01" rms="4.0331164002418518e-01" purity="2.7109104394912720e-01" nType="0">
          <Node pos="l" depth="2" NCoef="0" IVar="5" Cut="3.0498379468917847e-01" cType="1" res="-1.9123816490173340e-01" rms="3.6907982826232910e-01" purity="1.9324088096618652e-01" nType="0">
            <Node pos="l" depth="3" NCoef="0" IVar="-1" Cut="0.0000000000000000e+00" cType="1" res="-5.2787821739912033e-02" rms="3.2113891839981079e-01" purity="1.3229924440383911e-01" nType="-99"/>
            <Node pos="r" depth="3" NCoef="0" IVar="-1" Cut="0.0000000000000000e+00" cType="1" res="-3.0615787953138351e-02" rms="4.0582260489463806e-01" purity="2.5458699464797974e-01" nType="-99"/>
          </Node>
          <Node pos="r" depth="2" NCoef="0" IVar="4" Cut="3.1332746148109436e-01" cType="1" res="-3.3997062593698502e-02" rms="4.4801050424575806e-01" purity="4.3221700191497803e-01" nType="0">
            <Node pos="l" depth="3" NCoef="0" IVar="-1" Cut="0.0000000000000000e+00" cType="1" res="-3.2653518021106720e-02" rms="3.9065906405448914e-01" purity="2.2247759997844696e-01" nType="-99"/>
            <Node pos="r" depth="3" NCoef="0" IVar="-1" Cut="0.0000000000000000e+00" cType="1" res="9.9022686481475830e-03" rms="4.6798878908157349e-01" purity="5.8275538682937622e-01" nType="-99"/>
          </Node>
        </Node>
        <Node pos="r" depth="1" NCoef="0" IVar="1" Cut="2.8063557147979736e+00" cType="1" res="8.5057437419891357e-02" rms="4.1460210084915161e-01" purity="6.3640725612640381e-01" nType="0">
          <Node pos="l" depth="2" NCoef="0" IVar="5" Cut="2.8989797830581665e-01" cType="1" res="-8.6713276803493500e-02" rms="4.4300645589828491e-01" purity="3.3798643946647644e-01" nType="0">
            <Node pos="l" depth="3" NCoef="0" IVar="-1" Cut="0.0000000000000000e+00" cType="1" res="-4.3885845690965652e-02" rms="3.6917489767074585e-01" purity="1.7944268882274628e-01" nType="-99"/>
            <Node pos="r" depth="3" NCoef="0" IVar="-1" Cut="0.0000000000000000e+00" cType="1" res="-2.3307399824261665e-03" rms="4.6948254108428955e-01" purity="4.4025194644927979e-01" nType="-99"/>
          </Node>
          <Node pos="r" depth="2" NCoef="0" IVar="4" Cut="1.2635338306427002e-01" cType="1" res="1.5412805974483490e-01" rms="3.8139811158180237e-01" purity="7.5640505552291870e-01" nType="0">
            <Node pos="l" depth="3" NCoef="0" IVar="-1" Cut="0.0000000000000000e+00" cType="1" res="-1.3248557224869728e-02" rms="4.4561687111854553e-01" purity="3.5456165671348572e-01" nType="-99"/>
            <Node pos="r" depth="3" NCoef="0" IVar="-1" Cut="0.0000000000000000e+00" cType="1" res="4.1670124977827072e-02" rms="3.5843110084533691e-01" purity="8.1987112760543823e-01" nType="-99"/>
          </Node>
        </Node>
      </Node>
    </BinaryTree>
    <BinaryTree type="DecisionTree" boostWeight="1.0000000000000000e+00" itree="8">
      <Node pos="s" depth="0" NCoef="0" IVar="7" Cut="5.0000000000000000e-01" cType="1" res="-1.5470890793949366e-03" rms="4.1941365599632263e-01" purity="4.9745413661003113e-01" nType="0">
        <Node pos="l" depth="1" NCoef="0" IVar="1" Cut="2.7758681774139404e+00" cType="1" res="7.8474067151546478e-02" rms="4.1029503941535950e-01" purity="6.4061313867568970e-01" nType="0">
          <Node pos="l" depth="2" NCoef="0" IVar="4" Cut="1.2657614052295685e-01" cType="1" res="-7.7962540090084076e-02" rms="4.4517281651496887e-01" purity="3.4025469422340393e-01" nType="0">
            <Node pos="l" depth="3" NCoef="0" IVar="-1" Cut="0.0000000000000000e+00" cType="1" res="-5.0054986029863358e-02" rms="3.0707225203514099e-01" purity="1.0791902244091034e-01" nType="-99"/>
            <Node pos="r" depth="3" NCoef="0" IVar="-1" Cut="0.0000000000000000e+00" cType="1" res="-3.9733066223561764e-03" rms="4.7907623648643494e-01" purity="4.3657746911048889e-01" nType="-99"/>
          </Node>
          <Node pos="r" depth="2" NCoef="0" IVar="3" Cut="8.7548255920410156e-01" cType="1" res="1.4294791221618652e-01" rms="3.7656623125076294e-01" purity="7.6440304517745972e-01" nType="0">
            <Node pos="l" depth="3" NCoef="0" IVar="-1" Cut="0.0000000000000000e+00" cType="1" res="-1.3700004667043686e-02" rms="4.3257421255111694e-01" purity="4.3175879120826721e-01" nType="-99"/>
            <Node pos="r" depth="3" NCoef="0" IVar="-1" Cut="0.0000000000000000e+00" cType="1" res="3.9233740419149399e-02" rms="3.5780185461044312e-01" purity="8.1302809715270996e-01" nType="-99"/>
          </Node>
        </Node>
        <Node pos="r" depth="1" NCoef="0" IVar="4" Cut="6.2593936920166016e-01" cType="1" res="-1.1933822184801102e-01" rms="4.0465304255485535e-01" purity="2.8672403097152710e-01" nType="0">
          <Node pos="l" depth="2" NCoef="0" IVar="3" Cut="8.7551659345626831e-01" cType="1" res="-1.8666452169418335e-01" rms="3.3373516798019409e-01" purity="1.5682625770568848e-01" nType="0">
            <Node pos="l" depth="3" NCoef="0" IVar="-1" Cut="0.0000000000000000e+00" cType="1" res="-5.8802060782909393e-02" rms="2.2177164256572723e-01" purity="5.8679535984992981e-02" nType="-99"/>
            <Node pos="r" depth="3" NCoef="0" IVar="-1" Cut="0.0000000000000000e+00" cType="1" res="-3.0897133052349091e-02" rms="3.9698562026023865e-01" purity="2.3702080547809601e-01" nType="-99"/>
          </Node>
          <Node pos="r" depth="2" NCoef="0" IVar="7" Cut="1.4375000000000000e+00" cType="1" res="-3.4668482840061188e-02" rms="4.6554151177406311e-01" purity="4.5008382201194763e-01" nType="0">
            <Node pos="l" depth="3" NCoef="0" IVar="-1" Cut="0.0000000000000000e+00" cType="1" res="4.8160729929804802e-03" rms="4.6948003768920898e-01" purity="5.3246027231216431e-01" nType="-99"/>
            <Node pos="r" depth="3" NCoef="0" IVar="-1" Cut="0.0000000000000000e+00" cType="1" res="-3.5096451640129089e-02" rms="4.2702031135559082e-01" purity="2.5956165790557861e-01" nType="-99"/>
          </Node>
        </Node>
      </Node>
    </BinaryTree>
    <BinaryTree type="DecisionTree" boostWeight="1.0000000000000000e+00" itree="9">
      <Node pos="s" depth="0" NCoef="0" IVar="12" Cut="2.9452464580535889e+00" cType="1" res="3.0851794872432947e-03" rms="4.1446509957313538e-01" purity="5.0151264667510986e-01" nType="0">
        <Node pos="l" depth="1" NCoef="0" IVar="1" Cut="3.7676086425781250e+00" cType="1" res="-1.1490363627672195e-01" rms="4.0028449892997742e-01" purity="2.7422475814819336e-01" nType="0">
          <Node pos="l" depth="2" NCoef="0" IVar="3" Cut="9.3778377771377563e-01" cType="1" res="-1.7099241912364960e-01" rms="3.5927683115005493e-01" purity="1.7928090691566467e-01" nType="0">
            <Node pos="l" depth="3" NCoef="0" IVar="-1" Cut="0.0000000000000000e+00" cType="1" res="-5.7188592851161957e-02" rms="2.2121925652027130e-01" purity="5.7318437844514847e-02" nType="-99"/>
            <Node pos="r" depth="3" NCoef="0" IVar="-1" Cut="0.0000000000000000e+00" cType="1" res="-3.0401786789298058e-02" rms="4.1204234957695007e-01" purity="2.4531483650207520e-01" nType="-99"/>
          </Node>
          <Node pos="r" depth="2" NCoef="0" IVar="4" Cut="1.8887804448604584e-01" cType="1" res="-3.8732767105102539e-02" rms="4.3869510293006897e-01" purity="4.0316233038902283e-01" nType="0">
            <Node pos="l" depth="3" NCoef="0" IVar="-1" Cut="0.0000000000000000e+00" cType="1" res="-3.7842839956283569e-02" rms="3.4522044658660889e-01" purity="1.6315636038780212e-01" nType="-99"/>
            <Node pos="r" depth="3" NCoef="0" IVar="-1" Cut="0.0000000000000000e+00" cType="1" res="5.2083474583923817e-03" rms="4.6762987971305847e-01" purity="5.2803766727447510e-01" nType="-99"/>
          </Node>
        </Node>
        <Node pos="r" depth="1" NCoef="0" IVar="1" Cut="2.3868031501770020e+00" cType="1" res="7.3524340987205505e-02" rms="4.0670153498649597e-01" purity="6.3720315694808960e-01" nType="0">
          <Node pos="l" depth="2" NCoef="0" IVar="6" Cut="3.0256932973861694e-01" cType="1" res="-1.2152335047721863e-01" rms="4.1882055997848511e-01" purity="2.7747565507888794e-01" nType="0">
            <Node pos="l" depth="3" NCoef="0" IVar="-1" Cut="0.0000000000000000e+00" cType="1" res="-4.6082571148872375e-02" rms="3.5956153273582458e-01" purity="1.7746460437774658e-01" nType="-99"/>
            <Node pos="r" depth="3" NCoef="0" IVar="-1" Cut="0.0000000000000000e+00" cType="1" res="-8.9052971452474594e-03" rms="4.4984528422355652e-01" purity="3.6550697684288025e-01" nType="-99"/>
          </Node>
          <Node pos="r" depth="2" NCoef="0" IVar="3" Cut="8.1336939334869385e-01" cType="1" res="1.1720741540193558e-01" rms="3.9081582427024841e-01" purity="7.1776807308197021e-01" nType="0">
            <Node pos="l" depth="3" NCoef="0" IVar="-1" Cut="0.0000000000000000e+00" cType="1" res="-2.4661907926201820e-02" rms="4.0045136213302612e-01" purity="3.0923876166343689e-01" nType="-99"/>
            <Node pos="r" depth="3" NCoef="0" IVar="-1" Cut="0.0000000000000000e+00" cType="1" res="3.3032435923814774e-02" rms="3.8013336062431335e-01" purity="7.6868617534637451e-01" nType="-99"/>
          </Node>
        </Node>
      </Node>
    </BinaryTree>
    <BinaryTree type="DecisionTree" boostWeight="1.0000000000000000e+00" itree="10">
      <Node pos="s" depth="0" NCoef="0" IVar="0" Cut="1.1240714111328125e+03" cType="1" res="1.7450546147301793e-03" rms="4.1076520085334778e-01" purity="5.0062966346740723e-01" nType="0">
        <Node pos="l" depth="1" NCoef="0" IVar="5" Cut="3.0498379468917847e-01" cType="1" res="-5.6060858070850372e-02" rms="4.1892442107200623e-01" purity="3.8978704810142517e-01" nType="0">
          <Node pos="l" depth="2" NCoef="0" IVar="5" Cut="-9.3559408187866211e+00" cType="1" res="-1.4068026840686798e-01" rms="3.8642850518226624e-01" purity="2.6612576842308044e-01" nType="0">
            <Node pos="l" depth="3" NCoef="0" IVar="-1" Cut="0.0000000000000000e+00" cType="1" res="-8.4520801901817322e-03" rms="4.3005120754241943e-01" purity="4.1212472319602966e-01" nType="-99"/>
            <Node pos="r" depth="3" NCoef="0" IVar="-1" Cut="0.0000000000000000e+00" cType="1" res="-4.5861821621656418e-02" rms="3.4587195515632629e-01" purity="1.8334794044494629e-01" nType="-99"/>
          </Node>
          <Node pos="r" depth="2" NCoef="0" IVar="3" Cut="8.1335651874542236e-01" cType="1" res="1.0915102437138557e-02" rms="4.3134489655494690e-01" purity="4.8766458034515381e-01" nType="0">
            <Node pos="l" depth="3" NCoef="0" IVar="-1" Cut="0.0000000000000000e+00" cType="1" res="-4.5600909739732742e-02" rms="2.9730799794197083e-01" purity="1.2803065776824951e-01" nType="-99"/>
            <Node pos="r" depth="3" NCoef="0" IVar="-1" Cut="0.0000000000000000e+00" cType="1" res="1.1190515942871571e-02" rms="4.4322916865348816e-01" purity="5.6151628494262695e-01" nType="-99"/>
          </Node>
        </Node>
        <Node pos="r" depth="1" NCoef="0" IVar="7" Cut="5.0000000000000000e-01" cType="1" res="1.1688568443059921e-01" rms="3.6787343025207520e-01" purity="7.2141128778457642e-01" nType="0">
          <Node pos="l" depth="2" NCoef="0" IVar="0" Cut="1.5283889160156250e+03" cType="1" res="1.8738175928592682e-01" rms="2.9730266332626343e-01" purity="8.7595754861831665e-01" nType="0">
            <Node pos="l" depth="3" NCoef="0" IVar="-1" Cut="0.0000000000000000e+00" cType="1" res="3.3623050898313522e-02" rms="3.4392392635345459e-01" purity="8.1916898488998413e-01" nType="-99"/>
            <Node pos="r" depth="3" NCoef="0" IVar="-1" Cut="0.0000000000000000e+00" cType="1" res="5.2078537642955780e-02" rms="2.6368778944015503e-01" purity="9.0800112485885620e-01" nType="-99"/>
          </Node>
          <Node pos="r" depth="2" NCoef="0" IVar="4" Cut="4.3896394968032837e-01" cType="1" res="-7.9991929233074188e-03" rms="4.4055554270744324e-01" purity="4.4763028621673584e-01" nType="0">
            <Node pos="l" depth="3" NCoef="0" IVar="-1" Cut="0.0000000000000000e+00" cType="1" res="-2.5900585576891899e-02" rms="3.8684946298599243e-01" purity="2.2289520502090454e-01" nType="-99"/>
            <Node pos="r" depth="3" NCoef="0" IVar="-1" Cut="0.0000000000000000e+00" cType="1" res="1.4351251535117626e-02" rms="4.6207907795906067e-01" purity="6.1706578731536865e-01" nType="-99"/>
          </Node>
        </Node>
      </Node>
    </BinaryTree>
    <BinaryTree type="DecisionTree" boostWeight="1.0000000000000000e+00" itree="11">
      <Node pos="s" depth="0" NCoef="0" IVar="7" Cut="5.0000000000000000e-01" cType="1" res="-1.2040784349665046e-04" rms="4.0575036406517029e-01" purity="4.9783888459205627e-01" nType="0">
        <Node pos="l" depth="1" NCoef="0" IVar="3" Cut="8.1320327520370483e-01" cType="1" res="6.5380334854125977e-02" rms="3.9816772937774658e-01" purity="6.4164698123931885e-01" nType="0">
          <Node pos="l" depth="2" NCoef="0" IVar="-1" Cut="0.0000000000000000e+00" cType="1" res="-3.5133298486471176e-02" rms="3.5951936244964600e-01" purity="2.1907912194728851e-01" nType="-99"/>
          <Node pos="r" depth="2" NCoef="0" IVar="0" Cut="1.1240714111328125e+03" cType="1" res="9.8368801176548004e-02" rms="3.9335763454437256e-01" purity="7.0581835508346558e-01" nType="0">
            <Node pos="l" depth="3" NCoef="0" IVar="-1" Cut="0.0000000000000000e+00" cType="1" res="9.5893833786249161e-03" rms="4.4354054331779480e-01" purity="5.7935053110122681e-01" nType="-99"/>
            <Node pos="r" depth="3" NCoef="0" IVar="-1" Cut="0.0000000000000000e+00" cType="1" res="4.7291409224271774e-02" rms="2.7446067333221436e-01" purity="9.0748983621597290e-01" nType="-99"/>
          </Node>
        </Node>
        <Node pos="r" depth="1" NCoef="0" IVar="14" Cut="2.3936550617218018e+00" cType="1" res="-9.4989329576492310e-02" rms="3.9780429005622864e-01" purity="2.8955230116844177e-01" nType="0">
          <Node pos="l" depth="2" NCoef="0" IVar="4" Cut="5.6388998031616211e-01" cType="1" res="-1.9472408294677734e-01" rms="3.2427251338958740e-01" purity="1.4841943979263306e-01" nType="0">
            <Node pos="l" depth="3" NCoef="0" IVar="-1" Cut="0.0000000000000000e+00" cType="1" res="-5.5254679173231125e-02" rms="2.3649726808071136e-01" purity="6.4469456672668457e-02" nType="-99"/>
            <Node pos="r" depth="3" NCoef="0" IVar="-1" Cut="0.0000000000000000e+00" cType="1" res="-3.3896420150995255e-02" rms="4.2193028330802917e-01" purity="2.7596110105514526e-01" nType="-99"/>
          </Node>
          <Node pos="r" depth="2" NCoef="0" IVar="7" Cut="1.4375000000000000e+00" cType="1" res="-4.8331998288631439e-02" rms="4.1982954740524292e-01" purity="3.5557630658149719e-01" nType="0">
            <Node pos="l" depth="3" NCoef="0" IVar="-1" Cut="0.0000000000000000e+00" cType="1" res="1.5636614989489317e-03" rms="4.3480560183525085e-01" purity="4.4108408689498901e-01" nType="-99"/>
            <Node pos="r" depth="3" NCoef="0" IVar="-1" Cut="0.0000000000000000e+00" cType="1" res="-3.7474118173122406e-02" rms="3.6212885379791260e-01" purity="1.8120175600051880e-01" nType="-99"/>
          </Node>
        </Node>
      </Node>
    </BinaryTree>
    <BinaryTree type="DecisionTree" boostWeight="1.0000000000000000e+00" itree="12">
      <Node pos="s" depth="0" NCoef="0" IVar="4" Cut="1.2608738243579865e-01" cType="1" res="2.3225231561809778e-03" rms="4.0151888132095337e-01" purity="5.0180053710937500e-01" nType="0">
        <Node pos="l" depth="1" NCoef="0" IVar="1" Cut="4.0459508895874023e+00" cType="1" res="-1.3737542927265167e-01" rms="3.2919371128082275e-01" purity="1.6782394051551819e-01" nType="0">
          <Node pos="l" depth="2" NCoef="0" IVar="3" Cut="9.3776094913482666e-01" cType="1" res="-1.7255055904388428e-01" rms="2.8572785854339600e-01" purity="1.0467561334371567e-01" nType="0">
            <Node pos="l" depth="3" NCoef="0" IVar="-1" Cut="0.0000000000000000e+00" cType="1" res="-5.5106919258832932e-02" rms="1.9891993701457977e-01" purity="4.4902119785547256e-02" nType="-99"/>
            <Node pos="r" depth="3" NCoef="0" IVar="-1" Cut="0.0000000000000000e+00" cType="1" res="-3.1203003600239754e-02" rms="3.7555366754531860e-01" purity="1.9273114204406738e-01" nType="-99"/>
          </Node>
          <Node pos="r" depth="2" NCoef="0" IVar="-1" Cut="0.0000000000000000e+00" cType="1" res="-1.2218071147799492e-02" rms="4.0324401855468750e-01" purity="3.1998124718666077e-01" nType="-99"/>
        </Node>
        <Node pos="r" depth="1" NCoef="0" IVar="12" Cut="2.9452815055847168e+00" cType="1" res="4.5081492513418198e-02" rms="4.1181528568267822e-01" purity="6.0402464866638184e-01" nType="0">
          <Node pos="l" depth="2" NCoef="0" IVar="0" Cut="9.4107751464843750e+02" cType="1" res="-6.2624819576740265e-02" rms="4.3670985102653503e-01" purity="3.5973590612411499e-01" nType="0">
            <Node pos="l" depth="3" NCoef="0" IVar="-1" Cut="0.0000000000000000e+00" cType="1" res="-2.6657873764634132e-02" rms="4.1027438640594482e-01" purity="2.5007516145706177e-01" nType="-99"/>
            <Node pos="r" depth="3" NCoef="0" IVar="-1" Cut="0.0000000000000000e+00" cType="1" res="5.6125922128558159e-03" rms="4.6104615926742554e-01" purity="5.3034198284149170e-01" nType="-99"/>
          </Node>
          <Node pos="r" depth="2" NCoef="0" IVar="1" Cut="2.3867330551147461e+00" cType="1" res="9.6264988183975220e-02" rms="3.8912856578826904e-01" purity="7.2011393308639526e-01" nType="0">
            <Node pos="l" depth="3" NCoef="0" IVar="-1" Cut="0.0000000000000000e+00" cType="1" res="-1.3384062796831131e-02" rms="4.5504578948020935e-01" purity="3.5745409131050110e-01" nType="-99"/>
            <Node pos="r" depth="3" NCoef="0" IVar="-1" Cut="0.0000000000000000e+00" cType="1" res="3.0137933790683746e-02" rms="3.6816293001174927e-01" purity="7.8720158338546753e-01" nType="-99"/>
          </Node>
        </Node>
      </Node>
    </BinaryTree>
    <BinaryTree type="DecisionTree" boostWeight="1.0000000000000000e+00" itree="13">
      <Node pos="s" depth="0" NCoef="0" IVar="7" Cut="5.0000000000000000e-01" cType="1" res="9.2014385154470801e-04" rms="3.9857539534568787e-01" purity="5.0060522556304932e-01" nType="0">
        <Node pos="l" depth="1" NCoef="0" IVar="1" Cut="2.3505091667175293e+00" cType="1" res="5.7446852326393127e-02" rms="3.9206418395042419e-01" purity="6.4291197061538696e-01" nType="0">
          <Node pos="l" depth="2" NCoef="0" IVar="6" Cut="2.8771582245826721e-01" cType="1" res="-9.0034127235412598e-02" rms="4.1925257444381714e-01" purity="2.7774742245674133e-01" nType="0">
            <Node pos="l" depth="3" NCoef="0" IVar="-1" Cut="0.0000000000000000e+00" cType="1" res="-3.3736888319253922e-02" rms="3.8258007168769836e-01" purity="2.0443609356880188e-01" nType="-99"/>
            <Node pos="r" depth="3" NCoef="0" IVar="-1" Cut="0.0000000000000000e+00" cType="1" res="-9.0053109452128410e-03" rms="4.4252690672874451e-01" purity="3.4095418453216553e-01" nType="-99"/>
          </Node>
          <Node pos="r" depth="2" NCoef="0" IVar="4" Cut="6.3726507127285004e-02" cType="1" res="9.0854838490486145e-02" rms="3.7772268056869507e-01" purity="7.2563052177429199e-01" nType="0">
            <Node pos="l" depth="3" NCoef="0" IVar="-1" Cut="0.0000000000000000e+00" cType="1" res="-1.8959954380989075e-02" rms="4.1552063822746277e-01" purity="3.0547130107879639e-01" nType="-99"/>
            <Node pos="r" depth="3" NCoef="0" IVar="-1" Cut="0.0000000000000000e+00" cType="1" res="2.8257042169570923e-02" rms="3.6591133475303650e-01" purity="7.8234088420867920e-01" nType="-99"/>
          </Node>
        </Node>
        <Node pos="r" depth="1" NCoef="0" IVar="7" Cut="1.4375000000000000e+00" cType="1" res="-8.3514265716075897e-02" rms="3.9325571060180664e-01" purity="2.8804045915603638e-01" nType="0">
          <Node pos="l" depth="2" NCoef="0" IVar="1" Cut="3.3142435550689697e+00" cType="1" res="-3.8557495921850204e-02" rms="4.1725951433181763e-01" purity="3.6490964889526367e-01" nType="0">
            <Node pos="l" depth="3" NCoef="0" IVar="-1" Cut="0.0000000000000000e+00" cType="1" res="-3.1485900282859802e-02" rms="3.6603280901908875e-01" purity="2.0012263953685760e-01" nType="-99"/>
            <Node pos="r" depth="3" NCoef="0" IVar="-1" Cut="0.0000000000000000e+00" cType="1" res="8.7400861084461212e-03" rms="4.4104155898094177e-01" purity="5.0353562831878662e-01" nType="-99"/>
          </Node>
          <Node pos="r" depth="2" NCoef="0" IVar="2" Cut="1.7675803899765015e+00" cType="1" res="-1.6880717873573303e-01" rms="3.2654157280921936e-01" purity="1.4220258593559265e-01" nType="0">
            <Node pos="l" depth="3" NCoef="0" IVar="-1" Cut="0.0000000000000000e+00" cType="1" res="-3.1269345432519913e-02" rms="3.7133431434631348e-01" purity="1.9969660043716431e-01" nType="-99"/>
            <Node pos="r" depth="3" NCoef="0" IVar="-1" Cut="0.0000000000000000e+00" cType="1" res="-4.8909105360507965e-02" rms="2.8869089484214783e-01" purity="1.0241029411554337e-01" nType="-99"/>
          </Node>
        </Node>
      </Node>
    </BinaryTree>
    <BinaryTree type="DecisionTree" boostWeight="1.0000000000000000e+00" itree="14">
      <Node pos="s" depth="0" NCoef="0" IVar="4" Cut="1.2608738243579865e-01" cType="1" res="3.3155526034533978e-03" rms="3.9521944522857666e-01" purity="5.0395256280899048e-01" nType="0">
        <Node pos="l" depth="1" NCoef="0" IVar="3" Cut="3.1544232368469238e-01" cType="1" res="-1.1751329153776169e-01" rms="3.3130502700805664e-01" purity="1.6814309358596802e-01" nType="0">
          <Node pos="l" depth="2" NCoef="0" IVar="-1" Cut="0.0000000000000000e+00" cType="1" res="-5.5886048823595047e-02" rms="1.8032641708850861e-01" purity="3.3944681286811829e-02" nType="-99"/>
          <Node pos="r" depth="2" NCoef="0" IVar="7" Cut="4.3750000000000000e-01" cType="1" res="-8.6493968963623047e-02" rms="3.7539407610893250e-01" purity="2.2771093249320984e-01" nType="0">
            <Node pos="l" depth="3" NCoef="0" IVar="-1" Cut="0.0000000000000000e+00" cType="1" res="-8.9115416631102562e-03" rms="4.2922946810722351e-01" purity="3.3931431174278259e-01" nType="-99"/>
            <Node pos="r" depth="3" NCoef="0" IVar="-1" Cut="0.0000000000000000e+00" cType="1" res="-3.7789605557918549e-02" rms="2.9825434088706970e-01" purity="1.0677977651357651e-01" nType="-99"/>
          </Node>
        </Node>
        <Node pos="r" depth="1" NCoef="0" IVar="14" Cut="1.9196757078170776e+00" cType="1" res="4.0181957185268402e-02" rms="4.0565106272697449e-01" purity="6.0641229152679443e-01" nType="0">
          <Node pos="l" depth="2" NCoef="0" IVar="7" Cut="5.0000000000000000e-01" cType="1" res="-1.2365467101335526e-01" rms="4.0724530816078186e-01" purity="3.2607004046440125e-01" nType="0">
            <Node pos="l" depth="3" NCoef="0" IVar="-1" Cut="0.0000000000000000e+00" cType="1" res="-1.2103999033570290e-02" rms="4.5227834582328796e-01" purity="4.8486679792404175e-01" nType="-99"/>
            <Node pos="r" depth="3" NCoef="0" IVar="-1" Cut="0.0000000000000000e+00" cType="1" res="-4.6890486031770706e-02" rms="3.3228150010108948e-01" purity="1.4616960287094116e-01" nType="-99"/>
          </Node>
          <Node pos="r" depth="2" NCoef="0" IVar="7" Cut="1.5000000000000000e+00" cType="1" res="6.7195944488048553e-02" rms="3.9897802472114563e-01" purity="6.5263611078262329e-01" nType="0">
            <Node pos="l" depth="3" NCoef="0" IVar="-1" Cut="0.0000000000000000e+00" cType="1" res="2.1290171891450882e-02" rms="3.9231145381927490e-01" purity="7.0405036211013794e-01" nType="-99"/>
            <Node pos="r" depth="3" NCoef="0" IVar="-1" Cut="0.0000000000000000e+00" cType="1" res="-2.5249790400266647e-02" rms="4.0809082984924316e-01" purity="2.3728315532207489e-01" nType="-99"/>
          </Node>
        </Node>
      </Node>
    </BinaryTree>
    <BinaryTree type="DecisionTree" boostWeight="1.0000000000000000e+00" itree="15">
      <Node pos="s" depth="0" NCoef="0" IVar="0" Cut="1.1240755615234375e+03" cType="1" res="1.6233434434980154e-03" rms="3.9262592792510986e-01" purity="5.0143647193908691e-01" nType="0">
        <Node pos="l" depth="1" NCoef="0" IVar="5" Cut="3.0498379468917847e-01" cType="1" res="-4.2684886604547501e-02" rms="4.0473589301109314e-01" purity="3.8831147551536560e-01" nType="0">
          <Node pos="l" depth="2" NCoef="0" IVar="6" Cut="3.0455556511878967e-01" cType="1" res="-1.1183723807334900e-01" rms="3.7651914358139038e-01" purity="2.6846420764923096e-01" nType="0">
            <Node pos="l" depth="3" NCoef="0" IVar="-1" Cut="0.0000000000000000e+00" cType="1" res="-4.3256897479295731e-02" rms="3.4068077802658081e-01" purity="1.8616056442260742e-01" nType="-99"/>
            <Node pos="r" depth="3" NCoef="0" IVar="-1" Cut="0.0000000000000000e+00" cType="1" res="-1.0787175968289375e-02" rms="4.0130680799484253e-01" purity="3.5834100842475891e-01" nType="-99"/>
          </Node>
          <Node pos="r" depth="2" NCoef="0" IVar="5" Cut="6.4848411083221436e-01" cType="1" res="1.1895727366209030e-02" rms="4.1768047213554382e-01" purity="4.8290467262268066e-01" nType="0">
            <Node pos="l" depth="3" NCoef="0" IVar="-1" Cut="0.0000000000000000e+00" cType="1" res="-1.7442613840103149e-02" rms="4.0797567367553711e-01" purity="3.7062048912048340e-01" nType="-99"/>
            <Node pos="r" depth="3" NCoef="0" IVar="-1" Cut="0.0000000000000000e+00" cType="1" res="1.8764641135931015e-02" rms="4.1261270642280579e-01" purity="5.7231086492538452e-01" nType="-99"/>
          </Node>
        </Node>
        <Node pos="r" depth="1" NCoef="0" IVar="12" Cut="2.7490797042846680e+00" cType="1" res="8.8776156306266785e-02" rms="3.5171696543693542e-01" purity="7.2394961118698120e-01" nType="0">
          <Node pos="l" depth="2" NCoef="0" IVar="-1" Cut="0.0000000000000000e+00" cType="1" res="-1.2917988933622837e-02" rms="4.2154595255851746e-01" purity="3.4933429956436157e-01" nType="-99"/>
          <Node pos="r" depth="2" NCoef="0" IVar="2" Cut="2.1598770618438721e+00" cType="1" res="1.1976978927850723e-01" rms="3.2663938403129578e-01" purity="8.0419605970382690e-01" nType="0">
            <Node pos="l" depth="3" NCoef="0" IVar="-1" Cut="0.0000000000000000e+00" cType="1" res="3.8635637611150742e-02" rms="3.0404922366142273e-01" purity="8.4754151105880737e-01" nType="-99"/>
            <Node pos="r" depth="3" NCoef="0" IVar="-1" Cut="0.0000000000000000e+00" cType="1" res="1.0504915378987789e-02" rms="3.7852814793586731e-01" purity="6.6825067996978760e-01" nType="-99"/>
          </Node>
        </Node>
      </Node>
    </BinaryTree>
    <BinaryTree type="DecisionTree" boostWeight="1.0000000000000000e+00" itree="16">
      <Node pos="s" depth="0" NCoef="0" IVar="1" Cut="3.8000538349151611e+00" cType="1" res="6.2481069471687078e-04" rms="3.8931003212928772e-01" purity="5.0142133235931396e-01" nType="0">
        <Node pos="l" depth="1" NCoef="0" IVar="6" Cut="3.1097868084907532e-01" cType="1" res="-5.3076621145009995e-02" rms="3.9874657988548279e-01" purity="3.5397657752037048e-01" nType="0">
          <Node pos="l" depth="2" NCoef="0" IVar="6" Cut="-9.3555669784545898e+00" cType="1" res="-1.1220924556255341e-01" rms="3.7216901779174805e-01" purity="2.7503889799118042e-01" nType="0">
            <Node pos="l" depth="3" NCoef="0" IVar="-1" Cut="0.0000000000000000e+00" cType="1" res="-8.6994253797456622e-04" rms="4.0592435002326965e-01" purity="4.4814220070838928e-01" nType="-99"/>
            <Node pos="r" depth="3" NCoef="0" IVar="-1" Cut="0.0000000000000000e+00" cType="1" res="-4.3771728873252869e-02" rms="3.3450898528099060e-01" purity="1.7272530496120453e-01" nType="-99"/>
          </Node>
          <Node pos="r" depth="2" NCoef="0" IVar="6" Cut="6.5468573570251465e-01" cType="1" res="6.4258570782840252e-03" rms="4.1539978981018066e-01" purity="4.3340799212455750e-01" nType="0">
            <Node pos="l" depth="3" NCoef="0" IVar="-1" Cut="0.0000000000000000e+00" cType="1" res="-1.6925990581512451e-02" rms="4.0078145265579224e-01" purity="3.3262312412261963e-01" nType="-99"/>
            <Node pos="r" depth="3" NCoef="0" IVar="-1" Cut="0.0000000000000000e+00" cType="1" res="2.3149097338318825e-02" rms="4.1373431682586670e-01" purity="5.5250936746597290e-01" nType="-99"/>
          </Node>
        </Node>
        <Node pos="r" depth="1" NCoef="0" IVar="7" Cut="1.5000000000000000e+00" cType="1" res="6.7418269813060760e-02" rms="3.6642122268676758e-01" purity="6.8481206893920898e-01" nType="0">
          <Node pos="l" depth="2" NCoef="0" IVar="3" Cut="9.3771189451217651e-01" cType="1" res="9.5151290297508240e-02" rms="3.5590699315071106e-01" purity="7.5903147459030151e-01" nType="0">
            <Node pos="l" depth="3" NCoef="0" IVar="-1" Cut="0.0000000000000000e+00" cType="1" res="-5.7392660528421402e-03" rms="3.9620485901832581e-01" purity="4.5309635996818542e-01" nType="-99"/>
            <Node pos="r" depth="3" NCoef="0" IVar="-1" Cut="0.0000000000000000e+00" cType="1" res="3.0783016234636307e-02" rms="3.4330832958221436e-01" purity="8.1627893447875977e-01" nType="-99"/>
          </Node>
          <Node pos="r" depth="2" NCoef="0" IVar="-1" Cut="0.0000000000000000e+00" cType="1" res="-2.6797898113727570e-02" rms="3.8267296552658081e-01" purity="2.0964407920837402e-01" nType="-99"/>
        </Node>
      </Node>
    </BinaryTree>
    <BinaryTree type="DecisionTree" boostWeight="1.0000000000000000e+00" itree="17">
      <Node pos="s" depth="0" NCoef="0" IVar="0" Cut="1.0886243896484375e+03" cType="1" res="-1.7528117168694735e-03" rms="3.8694596290588379e-01" purity="4.9847766757011414e-01" nType="0">
        <Node pos="l" depth="1" NCoef="0" IVar="5" Cut="2.9850679636001587e-01" cType="1" res="-4.3116644024848938e-02" rms="4.0064290165901184e-01" purity="3.7626254558563232e-01" nType="0">
          <Node pos="l" depth="2" NCoef="0" IVar="5" Cut="-9.3563442230224609e+00" cType="1" res="-1.0576512664556503e-01" rms="3.6913046240806580e-01" purity="2.5627782940864563e-01" nType="0">
            <Node pos="l" depth="3" NCoef="0" IVar="-1" Cut="0.0000000000000000e+00" cType="1" res="-5.9130322188138962e-03" rms="4.1274234652519226e-01" purity="4.0153482556343079e-01" nType="-99"/>
            <Node pos="r" depth="3" NCoef="0" IVar="-1" Cut="0.0000000000000000e+00" cType="1" res="-3.9458584040403366e-02" rms="3.3256489038467407e-01" purity="1.7265160381793976e-01" nType="-99"/>
          </Node>
          <Node pos="r" depth="2" NCoef="0" IVar="5" Cut="6.4181637763977051e-01" cType="1" res="5.9834462590515614e-03" rms="4.1718029975891113e-01" purity="4.7029930353164673e-01" nType="0">
            <Node pos="l" depth="3" NCoef="0" IVar="-1" Cut="0.0000000000000000e+00" cType="1" res="-1.6441637650132179e-02" rms="4.0606388449668884e-01" purity="3.6352801322937012e-01" nType="-99"/>
            <Node pos="r" depth="3" NCoef="0" IVar="-1" Cut="0.0000000000000000e+00" cType="1" res="1.5367135405540466e-02" rms="4.1626092791557312e-01" purity="5.5480343103408813e-01" nType="-99"/>
          </Node>
        </Node>
        <Node pos="r" depth="1" NCoef="0" IVar="11" Cut="8.1603187561035156e+01" cType="1" res="7.3434695601463318e-02" rms="3.4836086630821228e-01" purity="7.2062957286834717e-01" nType="0">
          <Node pos="l" depth="2" NCoef="0" IVar="2" Cut="2.1597504615783691e+00" cType="1" res="1.0524900257587433e-01" rms="3.1925612688064575e-01" purity="8.2629424333572388e-01" nType="0">
            <Node pos="l" depth="3" NCoef="0" IVar="-1" Cut="0.0000000000000000e+00" cType="1" res="3.7145636975765228e-02" rms="2.8786453604698181e-01" purity="8.7468546628952026e-01" nType="-99"/>
            <Node pos="r" depth="3" NCoef="0" IVar="-1" Cut="0.0000000000000000e+00" cType="1" res="1.0859177447855473e-02" rms="3.8309720158576965e-01" purity="6.9844090938568115e-01" nType="-99"/>
          </Node>
          <Node pos="r" depth="2" NCoef="0" IVar="-1" Cut="0.0000000000000000e+00" cType="1" res="-7.7484278008341789e-03" rms="4.1441428661346436e-01" purity="3.6628708243370056e-01" nType="-99"/>
        </Node>
      </Node>
    </BinaryTree>
    <BinaryTree type="DecisionTree" boostWeight="1.0000000000000000e+00" itree="18">
      <Node pos="s" depth="0" NCoef="0" IVar="3" Cut="6.8875676393508911e-01" cType="1" res="-1.7423579702153802e-03" rms="3.8414484262466431e-01" purity="4.9719265103340149e-01" nType="0">
        <Node pos="l" depth="1" NCoef="0" IVar="3" Cut="3.0354356765747070e-01" cType="1" res="-1.4131547510623932e-01" rms="2.5220048427581787e-01" purity="9.8449878394603729e-02" nType="0">
          <Node pos="l" depth="2" NCoef="0" IVar="-1" Cut="0.0000000000000000e+00" cType="1" res="-5.3784601390361786e-02" rms="1.7531475424766541e-01" purity="3.5016510635614395e-02" nType="-99"/>
          <Node pos="r" depth="2" NCoef="0" IVar="-1" Cut="0.0000000000000000e+00" cType="1" res="-3.0752245336771011e-02" rms="3.2047048211097717e-01" purity="1.7680487036705017e-01" nType="-99"/>
        </Node>
        <Node pos="r" depth="1" NCoef="0" IVar="14" Cut="2.3758034706115723e+00" cType="1" res="2.1677540615200996e-02" rms="3.9728897809982300e-01" purity="5.6410038471221924e-01" nType="0">
          <Node pos="l" depth="2" NCoef="0" IVar="7" Cut="4.3750000000000000e-01" cType="1" res="-7.1838997304439545e-02" rms="4.0392550826072693e-01" purity="3.5688880085945129e-01" nType="0">
            <Node pos="l" depth="3" NCoef="0" IVar="-1" Cut="0.0000000000000000e+00" cType="1" res="-5.8030937798321247e-03" rms="4.3259230256080627e-01" purity="4.9400293827056885e-01" nType="-99"/>
            <Node pos="r" depth="3" NCoef="0" IVar="-1" Cut="0.0000000000000000e+00" cType="1" res="-3.2573953270912170e-02" rms="3.5583922266960144e-01" purity="1.8383413553237915e-01" nType="-99"/>
          </Node>
          <Node pos="r" depth="2" NCoef="0" IVar="12" Cut="2.9452533721923828e+00" cType="1" res="5.3406279534101486e-02" rms="3.8994947075843811e-01" purity="6.3440406322479248e-01" nType="0">
            <Node pos="l" depth="3" NCoef="0" IVar="-1" Cut="0.0000000000000000e+00" cType="1" res="-5.3721275180578232e-03" rms="4.3237435817718506e-01" purity="3.8609856367111206e-01" nType="-99"/>
            <Node pos="r" depth="3" NCoef="0" IVar="-1" Cut="0.0000000000000000e+00" cType="1" res="2.2567221894860268e-02" rms="3.6459448933601379e-01" purity="7.4398350715637207e-01" nType="-99"/>
          </Node>
        </Node>
      </Node>
    </BinaryTree>
    <BinaryTree type="DecisionTree" boostWeight="1.0000000000000000e+00" itree="19">
      <Node pos="s" depth="0" NCoef="0" IVar="4" Cut="4.3820506334304810e-01" cType="1" res="-4.3689933954738081e-04" rms="3.8367408514022827e-01" purity="4.9865695834159851e-01" nType="0">
        <Node pos="l" depth="1" NCoef="0" IVar="3" Cut="5.6415241956710815e-01" cType="1" res="-6.3490770757198334e-02" rms="3.5779476165771484e-01" purity="2.7294856309890747e-01" nType="0">
          <Node pos="l" depth="2" NCoef="0" IVar="3" Cut="1.7891061305999756e-01" cType="1" res="-1.3529439270496368e-01" rms="2.3291693627834320e-01" purity="7.5034901499748230e-02" nType="0">
            <Node pos="l" depth="3" NCoef="0" IVar="-1" Cut="0.0000000000000000e+00" cType="1" res="-5.3696468472480774e-02" rms="1.5715433657169342e-01" purity="2.6094399392604828e-02" nType="-99"/>
            <Node pos="r" depth="3" NCoef="0" IVar="-1" Cut="0.0000000000000000e+00" cType="1" res="-3.6824695765972137e-02" rms="2.7949565649032593e-01" purity="1.1525058746337891e-01" nType="-99"/>
          </Node>
          <Node pos="r" depth="2" NCoef="0" IVar="1" Cut="4.1025438308715820e+00" cType="1" res="-3.2563652843236923e-02" rms="3.9574313163757324e-01" purity="3.5819351673126221e-01" nType="0">
            <Node pos="l" depth="3" NCoef="0" IVar="-1" Cut="0.0000000000000000e+00" cType="1" res="-1.7932787537574768e-02" rms="3.8381043076515198e-01" purity="2.5916001200675964e-01" nType="-99"/>
            <Node pos="r" depth="3" NCoef="0" IVar="-1" Cut="0.0000000000000000e+00" cType="1" res="1.1361634358763695e-02" rms="4.0812736749649048e-01" purity="5.6306558847427368e-01" nType="-99"/>
          </Node>
        </Node>
        <Node pos="r" depth="1" NCoef="0" IVar="12" Cut="2.7489669322967529e+00" cType="1" res="4.1832081973552704e-02" rms="3.9448362588882446e-01" purity="6.4996355772018433e-01" nType="0">
          <Node pos="l" depth="2" NCoef="0" IVar="-1" Cut="0.0000000000000000e+00" cType="1" res="-1.5868382528424263e-02" rms="4.3321320414543152e-01" purity="3.3719480037689209e-01" nType="-99"/>
          <Node pos="r" depth="2" NCoef="0" IVar="5" Cut="3.0993038415908813e-01" cType="1" res="6.1667144298553467e-02" rms="3.8385251164436340e-01" purity="7.0507264137268066e-01" nType="0">
            <Node pos="l" depth="3" NCoef="0" IVar="-1" Cut="0.0000000000000000e+00" cType="1" res="2.2647690493613482e-03" rms="3.9209303259849548e-01" purity="6.2528830766677856e-01" nType="-99"/>
            <Node pos="r" depth="3" NCoef="0" IVar="-1" Cut="0.0000000000000000e+00" cType="1" res="2.4866510182619095e-02" rms="3.7360504269599915e-01" purity="7.6067858934402466e-01" nType="-99"/>
          </Node>
        </Node>
      </Node>
    </BinaryTree>
    <BinaryTree type="DecisionTree" boostWeight="1.0000000000000000e+00" itree="20">
      <Node pos="s" depth="0" NCoef="0" IVar="3" Cut="9.3772518634796143e-01" cType="1" res="1.8067217897623777e-03" rms="3.8207563757896423e-01" purity="5.0219959020614624e-01" nType="0">
        <Node pos="l" depth="1" NCoef="0" IVar="3" Cut="5.8749949932098389e-01" cType="1" res="-8.4458433091640472e-02" rms="3.1847652792930603e-01" purity="2.1282744407653809e-01" nType="0">
          <Node pos="l" depth="2" NCoef="0" IVar="3" Cut="1.8619665503501892e-01" cType="1" res="-1.1823815852403641e-01" rms="2.4186700582504272e-01" purity="8.3528809249401093e-02" nType="0">
            <Node pos="l" depth="3" NCoef="0" IVar="-1" Cut="0.0000000000000000e+00" cType="1" res="-5.1403649151325226e-02" rms="1.6034118831157684e-01" purity="2.7387978509068489e-02" nType="-99"/>
            <Node pos="r" depth="3" NCoef="0" IVar="-1" Cut="0.0000000000000000e+00" cType="1" res="-3.2278388738632202e-02" rms="2.8960159420967102e-01" purity="1.2776185572147369e-01" nType="-99"/>
          </Node>
          <Node pos="r" depth="2" NCoef="0" IVar="14" Cut="2.8546473979949951e+00" cType="1" res="-4.6198204159736633e-02" rms="3.8378712534904480e-01" purity="3.5927608609199524e-01" nType="0">
            <Node pos="l" depth="3" NCoef="0" IVar="-1" Cut="0.0000000000000000e+00" cType="1" res="-2.5490645319223404e-02" rms="3.6021226644515991e-01" purity="2.4546357989311218e-01" nType="-99"/>
            <Node pos="r" depth="3" NCoef="0" IVar="-1" Cut="0.0000000000000000e+00" cType="1" res="-6.7129905801266432e-04" rms="3.9749863743782043e-01" purity="4.5561343431472778e-01" nType="-99"/>
          </Node>
        </Node>
        <Node pos="r" depth="1" NCoef="0" IVar="7" Cut="1.5000000000000000e+00" cType="1" res="2.8516206890344620e-02" rms="3.9592838287353516e-01" purity="5.9179520606994629e-01" nType="0">
          <Node pos="l" depth="2" NCoef="0" IVar="0" Cut="6.6204162597656250e+02" cType="1" res="4.6133376657962799e-02" rms="3.9514112472534180e-01" purity="6.4410579204559326e-01" nType="0">
            <Node pos="l" depth="3" NCoef="0" IVar="-1" Cut="0.0000000000000000e+00" cType="1" res="-4.4999876990914345e-03" rms="4.4155940413475037e-01" purity="4.0433409810066223e-01" nType="-99"/>
            <Node pos="r" depth="3" NCoef="0" IVar="-1" Cut="0.0000000000000000e+00" cType="1" res="2.2555027157068253e-02" rms="3.6101740598678589e-01" purity="7.7943944931030273e-01" nType="-99"/>
          </Node>
          <Node pos="r" depth="2" NCoef="0" IVar="-1" Cut="0.0000000000000000e+00" cType="1" res="-2.6732621714472771e-02" rms="3.7538546323776245e-01" purity="1.9077524542808533e-01" nType="-99"/>
        </Node>
      </Node>
    </BinaryTree>
    <BinaryTree type="DecisionTree" boostWeight="1.0000000000000000e+00" itree="21">
      <Node pos="s" depth="0" NCoef="0" IVar="2" Cut="2.1598522663116455e+00" cType="1" res="-8.8383699767291546e-04" rms="3.7901100516319275e-01" purity="5.0051462650299072e-01" nType="0">
        <Node pos="l" depth="1" NCoef="0" IVar="4" Cut="1.2652790546417236e-01" cType="1" res="3.3033881336450577e-02" rms="3.7730547785758972e-01" purity="5.8285892009735107e-01" nType="0">
          <Node pos="l" depth="2" NCoef="0" IVar="0" Cut="5.9448400878906250e+02" cType="1" res="-6.4742721617221832e-02" rms="3.4170591831207275e-01" purity="2.0912586152553558e-01" nType="0">
            <Node pos="l" depth="3" NCoef="0" IVar="-1" Cut="0.0000000000000000e+00" cType="1" res="-3.5665415227413177e-02" rms="2.7220663428306580e-01" purity="9.2326633632183075e-02" nType="-99"/>
            <Node pos="r" depth="3" NCoef="0" IVar="-1" Cut="0.0000000000000000e+00" cType="1" res="-7.2814482264220715e-03" rms="3.8456672430038452e-01" purity="3.0273592472076416e-01" nType="-99"/>
          </Node>
          <Node pos="r" depth="2" NCoef="0" IVar="7" Cut="1.5000000000000000e+00" cType="1" res="5.6966803967952728e-02" rms="3.8172224164009094e-01" purity="6.7433810234069824e-01" nType="0">
            <Node pos="l" depth="3" NCoef="0" IVar="-1" Cut="0.0000000000000000e+00" cType="1" res="1.8535602837800980e-02" rms="3.7605819106101990e-01" purity="7.2061544656753540e-01" nType="-99"/>
            <Node pos="r" depth="3" NCoef="0" IVar="-1" Cut="0.0000000000000000e+00" cType="1" res="-1.8536249175667763e-02" rms="4.0814802050590515e-01" purity="2.3876614868640900e-01" nType="-99"/>
          </Node>
        </Node>
        <Node pos="r" depth="1" NCoef="0" IVar="7" Cut="5.0000000000000000e-01" cType="1" res="-6.6155694425106049e-02" rms="3.7370765209197998e-01" purity="3.4204971790313721e-01" nType="0">
          <Node pos="l" depth="2" NCoef="0" IVar="4" Cut="5.6311041116714478e-01" cType="1" res="-2.8846723958849907e-02" rms="4.0309506654739380e-01" purity="4.9131587147712708e-01" nType="0">
            <Node pos="l" depth="3" NCoef="0" IVar="-1" Cut="0.0000000000000000e+00" cType="1" res="-2.0693315193057060e-02" rms="3.8713496923446655e-01" purity="2.9590120911598206e-01" nType="-99"/>
            <Node pos="r" depth="3" NCoef="0" IVar="-1" Cut="0.0000000000000000e+00" cType="1" res="4.0989625267684460e-03" rms="4.1117292642593384e-01" purity="6.6104453802108765e-01" nType="-99"/>
          </Node>
          <Node pos="r" depth="2" NCoef="0" IVar="14" Cut="1.9164600372314453e+00" cType="1" res="-1.0537141561508179e-01" rms="3.3565089106559753e-01" purity="1.8515506386756897e-01" nType="0">
            <Node pos="l" depth="3" NCoef="0" IVar="-1" Cut="0.0000000000000000e+00" cType="1" res="-4.1205924004316330e-02" rms="2.8239071369171143e-01" purity="1.0316522419452667e-01" nType="-99"/>
            <Node pos="r" depth="3" NCoef="0" IVar="-1" Cut="0.0000000000000000e+00" cType="1" res="-2.2525247186422348e-02" rms="3.6270925402641296e-01" purity="2.3494577407836914e-01" nType="-99"/>
          </Node>
        </Node>
      </Node>
    </BinaryTree>
    <BinaryTree type="DecisionTree" boostWeight="1.0000000000000000e+00" itree="22">
      <Node pos="s" depth="0" NCoef="0" IVar="2" Cut="1.7671591043472290e+00" cType="1" res="1.7170987557619810e-03" rms="3.7720185518264771e-01" purity="5.0318920612335205e-01" nType="0">
        <Node pos="l" depth="1" NCoef="0" IVar="0" Cut="6.6204162597656250e+02" cType="1" res="4.4829491525888443e-02" rms="3.7289634346961975e-01" purity="6.1620479822158813e-01" nType="0">
          <Node pos="l" depth="2" NCoef="0" IVar="6" Cut="3.0365881323814392e-01" cType="1" res="-1.1206127703189850e-02" rms="4.1936764121055603e-01" purity="3.8553670048713684e-01" nType="0">
            <Node pos="l" depth="3" NCoef="0" IVar="-1" Cut="0.0000000000000000e+00" cType="1" res="-1.7041759565472603e-02" rms="4.0417945384979248e-01" purity="2.9822760820388794e-01" nType="-99"/>
            <Node pos="r" depth="3" NCoef="0" IVar="-1" Cut="0.0000000000000000e+00" cType="1" res="1.0901035740971565e-02" rms="4.2641606926918030e-01" purity="4.7368109226226807e-01" nType="-99"/>
          </Node>
          <Node pos="r" depth="2" NCoef="0" IVar="7" Cut="5.6250000000000000e-01" cType="1" res="7.7425763010978699e-02" rms="3.3874121308326721e-01" purity="7.5038582086563110e-01" nType="0">
            <Node pos="l" depth="3" NCoef="0" IVar="-1" Cut="0.0000000000000000e+00" cType="1" res="3.3432278782129288e-02" rms="2.8741213679313660e-01" purity="8.7994307279586792e-01" nType="-99"/>
            <Node pos="r" depth="3" NCoef="0" IVar="-1" Cut="0.0000000000000000e+00" cType="1" res="4.1342093609273434e-03" rms="4.2109528183937073e-01" purity="4.7668299078941345e-01" nType="-99"/>
          </Node>
        </Node>
        <Node pos="r" depth="1" NCoef="0" IVar="0" Cut="1.4404182128906250e+03" cType="1" res="-4.5814312994480133e-02" rms="3.7620925903320312e-01" purity="3.7858960032463074e-01" nType="0">
          <Node pos="l" depth="2" NCoef="0" IVar="6" Cut="3.1050053238868713e-01" cType="1" res="-6.9021493196487427e-02" rms="3.7712508440017700e-01" purity="3.0779829621315002e-01" nType="0">
            <Node pos="l" depth="3" NCoef="0" IVar="-1" Cut="0.0000000000000000e+00" cType="1" res="-2.8802487999200821e-02" rms="3.6085221171379089e-01" purity="2.5121325254440308e-01" nType="-99"/>
            <Node pos="r" depth="3" NCoef="0" IVar="-1" Cut="0.0000000000000000e+00" cType="1" res="-6.3538202084600925e-03" rms="3.9090460538864136e-01" purity="3.7487256526947021e-01" nType="-99"/>
          </Node>
          <Node pos="r" depth="2" NCoef="0" IVar="-1" Cut="0.0000000000000000e+00" cType="1" res="1.2916125357151031e-02" rms="3.5774049162864685e-01" purity="6.6206181049346924e-01" nType="-99"/>
        </Node>
      </Node>
    </BinaryTree>
    <BinaryTree type="DecisionTree" boostWeight="1.0000000000000000e+00" itree="23">
      <Node pos="s" depth="0" NCoef="0" IVar="12" Cut="2.9452455043792725e+00" cType="1" res="-1.8273409223183990e-03" rms="3.7699940800666809e-01" purity="4.9677926301956177e-01" nType="0">
        <Node pos="l" depth="1" NCoef="0" IVar="1" Cut="4.6747012138366699e+00" cType="1" res="-5.4454982280731201e-02" rms="3.7974393367767334e-01" purity="2.6981925964355469e-01" nType="0">
          <Node pos="l" depth="2" NCoef="0" IVar="12" Cut="2.7611765861511230e+00" cType="1" res="-7.3873691260814667e-02" rms="3.6165428161621094e-01" purity="2.1423617005348206e-01" nType="0">
            <Node pos="l" depth="3" NCoef="0" IVar="-1" Cut="0.0000000000000000e+00" cType="1" res="-3.0642025172710419e-02" rms="3.2384374737739563e-01" purity="1.4646571874618530e-01" nType="-99"/>
            <Node pos="r" depth="3" NCoef="0" IVar="-1" Cut="0.0000000000000000e+00" cType="1" res="-9.6338698640465736e-03" rms="3.9952924847602844e-01" purity="2.9610684514045715e-01" nType="-99"/>
          </Node>
          <Node pos="r" depth="2" NCoef="0" IVar="-1" Cut="0.0000000000000000e+00" cType="1" res="2.7228130493313074e-03" rms="4.2899850010871887e-01" purity="4.5814302563667297e-01" nType="-99"/>
        </Node>
        <Node pos="r" depth="1" NCoef="0" IVar="1" Cut="2.3713736534118652e+00" cType="1" res="2.9883133247494698e-02" rms="3.7175625562667847e-01" purity="6.3353264331817627e-01" nType="0">
          <Node pos="l" depth="2" NCoef="0" IVar="6" Cut="3.0455556511878967e-01" cType="1" res="-6.4631186425685883e-02" rms="3.9423936605453491e-01" purity="2.6784679293632507e-01" nType="0">
            <Node pos="l" depth="3" NCoef="0" IVar="-1" Cut="0.0000000000000000e+00" cType="1" res="-3.1685777008533478e-02" rms="3.5081782937049866e-01" purity="1.6744492948055267e-01" nType="-99"/>
            <Node pos="r" depth="3" NCoef="0" IVar="-1" Cut="0.0000000000000000e+00" cType="1" res="-3.5714975092560053e-03" rms="4.2340895533561707e-01" purity="3.5783565044403076e-01" nType="-99"/>
          </Node>
          <Node pos="r" depth="2" NCoef="0" IVar="5" Cut="3.1021979451179504e-01" cType="1" res="5.0298660993576050e-02" rms="3.6350563168525696e-01" purity="7.1252250671386719e-01" nType="0">
            <Node pos="l" depth="3" NCoef="0" IVar="-1" Cut="0.0000000000000000e+00" cType="1" res="1.2844896409660578e-03" rms="3.7633749842643738e-01" purity="6.3592690229415894e-01" nType="-99"/>
            <Node pos="r" depth="3" NCoef="0" IVar="-1" Cut="0.0000000000000000e+00" cType="1" res="2.3239454254508018e-02" rms="3.5005375742912292e-01" purity="7.6863157749176025e-01" nType="-99"/>
          </Node>
        </Node>
      </Node>
    </BinaryTree>
    <BinaryTree type="DecisionTree" boostWeight="1.0000000000000000e+00" itree="24">
      <Node pos="s" depth="0" NCoef="0" IVar="3" Cut="9.3773871660232544e-01" cType="1" res="8.5437914822250605e-04" rms="3.7648048996925354e-01" purity="4.9924355745315552e-01" nType="0">
        <Node pos="l" depth="1" NCoef="0" IVar="0" Cut="9.8895794677734375e+02" cType="1" res="-7.0983961224555969e-02" rms="3.1406572461128235e-01" purity="2.1163180470466614e-01" nType="0">
          <Node pos="l" depth="2" NCoef="0" IVar="11" Cut="4.0742530822753906e+01" cType="1" res="-9.2497587203979492e-02" rms="2.8739464282989502e-01" purity="1.3295240700244904e-01" nType="0">
            <Node pos="l" depth="3" NCoef="0" IVar="-1" Cut="0.0000000000000000e+00" cType="1" res="-2.2966258227825165e-02" rms="3.4134182333946228e-01" purity="1.9673041999340057e-01" nType="-99"/>
            <Node pos="r" depth="3" NCoef="0" IVar="-1" Cut="0.0000000000000000e+00" cType="1" res="-4.4621367007493973e-02" rms="1.9172307848930359e-01" purity="4.7999132424592972e-02" nType="-99"/>
          </Node>
          <Node pos="r" depth="2" NCoef="0" IVar="-1" Cut="0.0000000000000000e+00" cType="1" res="-6.7942384630441666e-03" rms="3.6077859997749329e-01" purity="3.8177186250686646e-01" nType="-99"/>
        </Node>
        <Node pos="r" depth="1" NCoef="0" IVar="5" Cut="3.0993038415908813e-01" cType="1" res="2.3404415696859360e-02" rms="3.9132884144783020e-01" purity="5.8952480554580688e-01" nType="0">
          <Node pos="l" depth="2" NCoef="0" IVar="5" Cut="-9.3556308746337891e+00" cType="1" res="-2.0846350118517876e-02" rms="3.8842034339904785e-01" purity="4.9863469600677490e-01" nType="0">
            <Node pos="l" depth="3" NCoef="0" IVar="-1" Cut="0.0000000000000000e+00" cType="1" res="1.4650933444499969e-02" rms="3.7568637728691101e-01" purity="6.6811466217041016e-01" nType="-99"/>
            <Node pos="r" depth="3" NCoef="0" IVar="-1" Cut="0.0000000000000000e+00" cType="1" res="-2.6331581175327301e-02" rms="3.8554579019546509e-01" purity="3.1517130136489868e-01" nType="-99"/>
          </Node>
          <Node pos="r" depth="2" NCoef="0" IVar="5" Cut="5.2472442388534546e-01" cType="1" res="5.8346986770629883e-02" rms="3.9007934927940369e-01" purity="6.6129606962203979e-01" nType="0">
            <Node pos="l" depth="3" NCoef="0" IVar="-1" Cut="0.0000000000000000e+00" cType="1" res="-6.0438881628215313e-03" rms="4.1216459870338440e-01" purity="5.2393305301666260e-01" nType="-99"/>
            <Node pos="r" depth="3" NCoef="0" IVar="-1" Cut="0.0000000000000000e+00" cType="1" res="2.1904304623603821e-02" rms="3.7942501902580261e-01" purity="7.0366245508193970e-01" nType="-99"/>
          </Node>
        </Node>
      </Node>
    </BinaryTree>
    <BinaryTree type="DecisionTree" boostWeight="1.0000000000000000e+00" itree="25">
      <Node pos="s" depth="0" NCoef="0" IVar="7" Cut="5.0000000000000000e-01" cType="1" res="-9.5993618015199900e-04" rms="3.7340265512466431e-01" purity="4.9776583909988403e-01" nType="0">
        <Node pos="l" depth="1" NCoef="0" IVar="4" Cut="6.3726507127285004e-02" cType="1" res="3.1813152134418488e-02" rms="3.7080103158950806e-01" purity="6.4229774475097656e-01" nType="0">
          <Node pos="l" depth="2" NCoef="0" IVar="-1" Cut="0.0000000000000000e+00" cType="1" res="-2.0415110513567924e-02" rms="3.5670360922813416e-01" purity="2.1836976706981659e-01" nType="-99"/>
          <Node pos="r" depth="2" NCoef="0" IVar="5" Cut="3.1021979451179504e-01" cType="1" res="4.8584312200546265e-02" rms="3.7025788426399231e-01" purity="7.1004176139831543e-01" nType="0">
            <Node pos="l" depth="3" NCoef="0" IVar="-1" Cut="0.0000000000000000e+00" cType="1" res="8.5396750364452600e-04" rms="3.7742498517036438e-01" purity="6.2557160854339600e-01" nType="-99"/>
            <Node pos="r" depth="3" NCoef="0" IVar="-1" Cut="0.0000000000000000e+00" cType="1" res="2.1985003724694252e-02" rms="3.6203438043594360e-01" purity="7.6757109165191650e-01" nType="-99"/>
          </Node>
        </Node>
        <Node pos="r" depth="1" NCoef="0" IVar="4" Cut="9.3759608268737793e-01" cType="1" res="-4.9400970339775085e-02" rms="3.7196400761604309e-01" purity="2.8413709998130798e-01" nType="0">
          <Node pos="l" depth="2" NCoef="0" IVar="1" Cut="3.6952693462371826e+00" cType="1" res="-7.1380928158760071e-02" rms="3.4069558978080750e-01" purity="2.1374839544296265e-01" nType="0">
            <Node pos="l" depth="3" NCoef="0" IVar="-1" Cut="0.0000000000000000e+00" cType="1" res="-3.2600380480289459e-02" rms="2.9202097654342651e-01" purity="1.2070720642805099e-01" nType="-99"/>
            <Node pos="r" depth="3" NCoef="0" IVar="-1" Cut="0.0000000000000000e+00" cType="1" res="-8.6308056488633156e-03" rms="3.9033749699592590e-01" purity="3.3114060759544373e-01" nType="-99"/>
          </Node>
          <Node pos="r" depth="2" NCoef="0" IVar="2" Cut="1.7668197154998779e+00" cType="1" res="9.1970209032297134e-03" rms="4.3936702609062195e-01" purity="4.7179156541824341e-01" nType="0">
            <Node pos="l" depth="3" NCoef="0" IVar="-1" Cut="0.0000000000000000e+00" cType="1" res="1.0210857726633549e-02" rms="4.4243106245994568e-01" purity="5.6460255384445190e-01" nType="-99"/>
            <Node pos="r" depth="3" NCoef="0" IVar="-1" Cut="0.0000000000000000e+00" cType="1" res="-6.1793485656380653e-03" rms="4.3333119153976440e-01" purity="3.7852609157562256e-01" nType="-99"/>
          </Node>
        </Node>
      </Node>
    </BinaryTree>
    <BinaryTree type="DecisionTree" boostWeight="1.0000000000000000e+00" itree="26">
      <Node pos="s" depth="0" NCoef="0" IVar="0" Cut="1.1240714111328125e+03" cType="1" res="-7.8196084359660745e-04" rms="3.7276551127433777e-01" purity="4.9887308478355408e-01" nType="0">
        <Node pos="l" depth="1" NCoef="0" IVar="6" Cut="3.1022164225578308e-01" cType="1" res="-2.8887279331684113e-02" rms="3.8560745120048523e-01" purity="3.8186562061309814e-01" nType="0">
          <Node pos="l" depth="2" NCoef="0" IVar="6" Cut="-9.3556118011474609e+00" cType="1" res="-6.9299481809139252e-02" rms="3.7120008468627930e-01" purity="3.1518441438674927e-01" nType="0">
            <Node pos="l" depth="3" NCoef="0" IVar="-1" Cut="0.0000000000000000e+00" cType="1" res="2.5257546803914011e-04" rms="3.9886140823364258e-01" purity="4.6389427781105042e-01" nType="-99"/>
            <Node pos="r" depth="3" NCoef="0" IVar="-1" Cut="0.0000000000000000e+00" cType="1" res="-3.6156151443719864e-02" rms="3.3552992343902588e-01" purity="1.9160985946655273e-01" nType="-99"/>
          </Node>
          <Node pos="r" depth="2" NCoef="0" IVar="6" Cut="5.6798559427261353e-01" cType="1" res="1.7537785694003105e-02" rms="3.9646893739700317e-01" purity="4.5846816897392273e-01" nType="0">
            <Node pos="l" depth="3" NCoef="0" IVar="-1" Cut="0.0000000000000000e+00" cType="1" res="-1.5729755163192749e-02" rms="3.8695907592773438e-01" purity="3.3954045176506042e-01" nType="-99"/>
            <Node pos="r" depth="3" NCoef="0" IVar="-1" Cut="0.0000000000000000e+00" cType="1" res="1.8696684390306473e-02" rms="3.9391061663627625e-01" purity="5.4260563850402832e-01" nType="-99"/>
          </Node>
        </Node>
        <Node pos="r" depth="1" NCoef="0" IVar="4" Cut="1.2652373313903809e-01" cType="1" res="5.4011534899473190e-02" rms="3.3974242210388184e-01" purity="7.2698831558227539e-01" nType="0">
          <Node pos="l" depth="2" NCoef="0" IVar="-1" Cut="0.0000000000000000e+00" cType="1" res="-8.5987402126193047e-03" rms="3.8973715901374817e-01" purity="3.1883633136749268e-01" nType="-99"/>
          <Node pos="r" depth="2" NCoef="0" IVar="2" Cut="2.1598770618438721e+00" cType="1" res="7.1628578007221222e-02" rms="3.2586961984634399e-01" purity="8.0971938371658325e-01" nType="0">
            <Node pos="l" depth="3" NCoef="0" IVar="-1" Cut="0.0000000000000000e+00" cType="1" res="2.8239892795681953e-02" rms="3.0072733759880066e-01" purity="8.5541951656341553e-01" nType="-99"/>
            <Node pos="r" depth="3" NCoef="0" IVar="-1" Cut="0.0000000000000000e+00" cType="1" res="8.4504354745149612e-03" rms="3.8447132706642151e-01" purity="6.8252760171890259e-01" nType="-99"/>
          </Node>
        </Node>
      </Node>
    </BinaryTree>
    <BinaryTree type="DecisionTree" boostWeight="1.0000000000000000e+00" itree="27">
      <Node pos="s" depth="0" NCoef="0" IVar="2" Cut="2.3561880588531494e+00" cType="1" res="-1.9871157128363848e-03" rms="3.7043103575706482e-01" purity="4.9939823150634766e-01" nType="0">
        <Node pos="l" depth="1" NCoef="0" IVar="4" Cut="6.3726507127285004e-02" cType="1" res="2.0545937120914459e-02" rms="3.7099045515060425e-01" purity="5.6684523820877075e-01" nType="0">
          <Node pos="l" depth="2" NCoef="0" IVar="3" Cut="7.5110149383544922e-01" cType="1" res="-7.2466664016246796e-02" rms="3.1208810210227966e-01" purity="1.6638506948947906e-01" nType="0">
            <Node pos="l" depth="3" NCoef="0" IVar="-1" Cut="0.0000000000000000e+00" cType="1" res="-3.5566423088312149e-02" rms="2.3169736564159393e-01" purity="6.8043805658817291e-02" nType="-99"/>
            <Node pos="r" depth="3" NCoef="0" IVar="-1" Cut="0.0000000000000000e+00" cType="1" res="-1.4935179613530636e-02" rms="3.7298995256423950e-01" purity="2.6136323809623718e-01" nType="-99"/>
          </Node>
          <Node pos="r" depth="2" NCoef="0" IVar="1" Cut="2.4072060585021973e+00" cType="1" res="3.5763159394264221e-02" rms="3.7758383154869080e-01" purity="6.3236206769943237e-01" nType="0">
            <Node pos="l" depth="3" NCoef="0" IVar="-1" Cut="0.0000000000000000e+00" cType="1" res="-1.0323542170226574e-02" rms="4.1055089235305786e-01" purity="2.9999282956123352e-01" nType="-99"/>
            <Node pos="r" depth="3" NCoef="0" IVar="-1" Cut="0.0000000000000000e+00" cType="1" res="1.3891488313674927e-02" rms="3.6978507041931152e-01" purity="6.9080311059951782e-01" nType="-99"/>
          </Node>
        </Node>
        <Node pos="r" depth="1" NCoef="0" IVar="6" Cut="-9.3127727508544922e+00" cType="1" res="-6.2710464000701904e-02" rms="3.6200252175331116e-01" purity="3.1763818860054016e-01" nType="0">
          <Node pos="l" depth="2" NCoef="0" IVar="-1" Cut="0.0000000000000000e+00" cType="1" res="-2.8537821490317583e-03" rms="3.8307780027389526e-01" purity="4.7590902447700500e-01" nType="-99"/>
          <Node pos="r" depth="2" NCoef="0" IVar="6" Cut="6.3357281684875488e-01" cType="1" res="-8.4132224321365356e-02" rms="3.5075920820236206e-01" purity="2.5277754664421082e-01" nType="0">
            <Node pos="l" depth="3" NCoef="0" IVar="-1" Cut="0.0000000000000000e+00" cType="1" res="-3.5366464406251907e-02" rms="3.2624337077140808e-01" purity="1.8362255394458771e-01" nType="-99"/>
            <Node pos="r" depth="3" NCoef="0" IVar="-1" Cut="0.0000000000000000e+00" cType="1" res="2.4796358775347471e-03" rms="3.9309817552566528e-01" purity="4.3420070409774780e-01" nType="-99"/>
          </Node>
        </Node>
      </Node>
    </BinaryTree>
    <BinaryTree type="DecisionTree" boostWeight="1.0000000000000000e+00" itree="28">
      <Node pos="s" depth="0" NCoef="0" IVar="7" Cut="5.6250000000000000e-01" cType="1" res="-1.4962193090468645e-03" rms="3.7170043587684631e-01" purity="4.9701622128486633e-01" nType="0">
        <Node pos="l" depth="1" NCoef="0" IVar="1" Cut="2.3504712581634521e+00" cType="1" res="2.7636833488941193e-02" rms="3.6951756477355957e-01" purity="6.4197134971618652e-01" nType="0">
          <Node pos="l" depth="2" NCoef="0" IVar="6" Cut="2.8771582245826721e-01" cType="1" res="-4.2803298681974411e-02" rms="4.0372332930564880e-01" purity="2.7788290381431580e-01" nType="0">
            <Node pos="l" depth="3" NCoef="0" IVar="-1" Cut="0.0000000000000000e+00" cType="1" res="-2.6529746130108833e-02" rms="3.5271409153938293e-01" purity="1.7389206588268280e-01" nType="-99"/>
            <Node pos="r" depth="3" NCoef="0" IVar="-1" Cut="0.0000000000000000e+00" cType="1" res="3.5698717692866921e-04" rms="4.3709430098533630e-01" purity="3.6509686708450317e-01" nType="-99"/>
          </Node>
          <Node pos="r" depth="2" NCoef="0" IVar="6" Cut="3.1022164225578308e-01" cType="1" res="4.3555330485105515e-02" rms="3.5943198204040527e-01" purity="7.2425031661987305e-01" nType="0">
            <Node pos="l" depth="3" NCoef="0" IVar="-1" Cut="0.0000000000000000e+00" cType="1" res="5.1274355500936508e-03" rms="3.6086139082908630e-01" purity="7.0175236463546753e-01" nType="-99"/>
            <Node pos="r" depth="3" NCoef="0" IVar="-1" Cut="0.0000000000000000e+00" cType="1" res="2.3210857063531876e-02" rms="3.5368901491165161e-01" purity="7.5730133056640625e-01" nType="-99"/>
          </Node>
        </Node>
        <Node pos="r" depth="1" NCoef="0" IVar="1" Cut="5.1281733512878418e+00" cType="1" res="-4.5092649757862091e-02" rms="3.7069088220596313e-01" purity="2.8009670972824097e-01" nType="0">
          <Node pos="l" depth="2" NCoef="0" IVar="5" Cut="3.0498379468917847e-01" cType="1" res="-5.9314321726560593e-02" rms="3.5680195689201355e-01" purity="2.4137859046459198e-01" nType="0">
            <Node pos="l" depth="3" NCoef="0" IVar="-1" Cut="0.0000000000000000e+00" cType="1" res="-2.8392767533659935e-02" rms="3.1832146644592285e-01" purity="1.6621075570583344e-01" nType="-99"/>
            <Node pos="r" depth="3" NCoef="0" IVar="-1" Cut="0.0000000000000000e+00" cType="1" res="-8.2333656027913094e-03" rms="3.8584429025650024e-01" purity="3.0885708332061768e-01" nType="-99"/>
          </Node>
          <Node pos="r" depth="2" NCoef="0" IVar="-1" Cut="0.0000000000000000e+00" cType="1" res="7.8037464991211891e-03" rms="4.3072530627250671e-01" purity="4.9189090728759766e-01" nType="-99"/>
        </Node>
      </Node>
    </BinaryTree>
    <BinaryTree type="DecisionTree" boostWeight="1.0000000000000000e+00" itree="29">
      <Node pos="s" depth="0" NCoef="0" IVar="7" Cut="1.1250000000000000e+00" cType="1" res="2.7226104866713285e-03" rms="3.7106692790985107e-01" purity="5.0229495763778687e-01" nType="0">
        <Node pos="l" depth="1" NCoef="0" IVar="0" Cut="6.6204357910156250e+02" cType="1" res="1.5460023656487465e-02" rms="3.7601038813591003e-01" purity="5.5921840667724609e-01" nType="0">
          <Node pos="l" depth="2" NCoef="0" IVar="0" Cut="3.7327243041992188e+02" cType="1" res="-2.8813084587454796e-02" rms="3.9970913529396057e-01" purity="3.2395088672637939e-01" nType="0">
            <Node pos="l" depth="3" NCoef="0" IVar="-1" Cut="0.0000000000000000e+00" cType="1" res="-2.3555655032396317e-02" rms="3.7618887424468994e-01" purity="2.1845206618309021e-01" nType="-99"/>
            <Node pos="r" depth="3" NCoef="0" IVar="-1" Cut="0.0000000000000000e+00" cType="1" res="2.1666497923433781e-04" rms="4.0759572386741638e-01" purity="3.7612110376358032e-01" nType="-99"/>
          </Node>
          <Node pos="r" depth="2" NCoef="0" IVar="3" Cut="6.8915855884552002e-01" cType="1" res="4.3775182217359543e-02" rms="3.5717096924781799e-01" purity="7.0968526601791382e-01" nType="0">
            <Node pos="l" depth="3" NCoef="0" IVar="-1" Cut="0.0000000000000000e+00" cType="1" res="-1.8230790272355080e-02" rms="3.3628302812576294e-01" purity="2.1046133339405060e-01" nType="-99"/>
            <Node pos="r" depth="3" NCoef="0" IVar="-1" Cut="0.0000000000000000e+00" cType="1" res="1.6348334029316902e-02" rms="3.5755452513694763e-01" purity="7.6431328058242798e-01" nType="-99"/>
          </Node>
        </Node>
        <Node pos="r" depth="1" NCoef="0" IVar="10" Cut="2.8462500000000000e+02" cType="1" res="-7.7174820005893707e-02" rms="3.2729738950729370e-01" purity="1.4523361623287201e-01" nType="0">
          <Node pos="l" depth="2" NCoef="0" IVar="-1" Cut="0.0000000000000000e+00" cType="1" res="-3.3179439604282379e-02" rms="2.9623472690582275e-01" purity="1.1263591051101685e-01" nType="-99"/>
          <Node pos="r" depth="2" NCoef="0" IVar="-1" Cut="0.0000000000000000e+00" cType="1" res="-1.6858795657753944e-02" rms="3.5116529464721680e-01" purity="1.7430174350738525e-01" nType="-99"/>
        </Node>
      </Node>
    </BinaryTree>
    <BinaryTree type="DecisionTree" boostWeight="1.0000000000000000e+00" itree="30">
      <Node pos="s" depth="0" NCoef="0" IVar="4" Cut="3.7575465440750122e-01" cType="1" res="1.3378865551203489e-03" rms="3.6911988258361816e-01" purity="5.0294268131256104e-01" nType="0">
        <Node pos="l" depth="1" NCoef="0" IVar="1" Cut="4.9700527191162109e+00" cType="1" res="-4.2067471891641617e-02" rms="3.3990210294723511e-01" purity="2.5382307171821594e-01" nType="0">
          <Node pos="l" depth="2" NCoef="0" IVar="5" Cut="2.9056221246719360e-01" cType="1" res="-5.4100986570119858e-02" rms="3.3070307970046997e-01" purity="2.1195459365844727e-01" nType="0">
            <Node pos="l" depth="3" NCoef="0" IVar="-1" Cut="0.0000000000000000e+00" cType="1" res="-2.9524313285946846e-02" rms="2.9149922728538513e-01" purity="1.3715574145317078e-01" nType="-99"/>
            <Node pos="r" depth="3" NCoef="0" IVar="-1" Cut="0.0000000000000000e+00" cType="1" res="-8.1500187516212463e-03" rms="3.5989519953727722e-01" purity="2.7843040227890015e-01" nType="-99"/>
          </Node>
          <Node pos="r" depth="2" NCoef="0" IVar="-1" Cut="0.0000000000000000e+00" cType="1" res="7.5879557989537716e-03" rms="3.8193419575691223e-01" purity="4.9928483366966248e-01" nType="-99"/>
        </Node>
        <Node pos="r" depth="1" NCoef="0" IVar="14" Cut="1.9125925302505493e+00" cType="1" res="2.6528552174568176e-02" rms="3.8281098008155823e-01" purity="6.4752137660980225e-01" nType="0">
          <Node pos="l" depth="2" NCoef="0" IVar="-1" Cut="0.0000000000000000e+00" cType="1" res="-1.4122063294053078e-02" rms="4.1583555936813354e-01" purity="3.7244433164596558e-01" nType="-99"/>
          <Node pos="r" depth="2" NCoef="0" IVar="5" Cut="3.0993038415908813e-01" cType="1" res="3.9202552288770676e-02" rms="3.7591111660003662e-01" purity="6.8945586681365967e-01" nType="0">
            <Node pos="l" depth="3" NCoef="0" IVar="-1" Cut="0.0000000000000000e+00" cType="1" res="1.6254386864602566e-03" rms="3.8358357548713684e-01" purity="6.1196905374526978e-01" nType="-99"/>
            <Node pos="r" depth="3" NCoef="0" IVar="-1" Cut="0.0000000000000000e+00" cType="1" res="1.8058529123663902e-02" rms="3.6814692616462708e-01" purity="7.4710613489151001e-01" nType="-99"/>
          </Node>
        </Node>
      </Node>
    </BinaryTree>
    <BinaryTree type="DecisionTree" boostWeight="1.0000000000000000e+00" itree="31">
      <Node pos="s" depth="0" NCoef="0" IVar="2" Cut="1.3744027614593506e+00" cType="1" res="7.7158206840977073e-04" rms="3.6743709444999695e-01" purity="5.0266683101654053e-01" nType="0">
        <Node pos="l" depth="1" NCoef="0" IVar="3" Cut="8.7556928396224976e-01" cType="1" res="3.9252143353223801e-02" rms="3.6141106486320496e-01" purity="6.3659214973449707e-01" nType="0">
          <Node pos="l" depth="2" NCoef="0" IVar="-1" Cut="0.0000000000000000e+00" cType="1" res="-1.3288541696965694e-02" rms="3.2167848944664001e-01" purity="2.5248616933822632e-01" nType="-99"/>
          <Node pos="r" depth="2" NCoef="0" IVar="0" Cut="5.8120733642578125e+02" cType="1" res="5.3211972117424011e-02" rms="3.6606907844543457e-01" purity="7.0320880413055420e-01" nType="0">
            <Node pos="l" depth="3" NCoef="0" IVar="-1" Cut="0.0000000000000000e+00" cType="1" res="2.8351915534585714e-03" rms="4.3579688668251038e-01" purity="4.4705247879028320e-01" nType="-99"/>
            <Node pos="r" depth="3" NCoef="0" IVar="-1" Cut="0.0000000000000000e+00" cType="1" res="2.1896643564105034e-02" rms="3.3366322517395020e-01" purity="8.0291342735290527e-01" nType="-99"/>
          </Node>
        </Node>
        <Node pos="r" depth="1" NCoef="0" IVar="6" Cut="-9.3126335144042969e+00" cType="1" res="-2.4759400635957718e-02" rms="3.6917442083358765e-01" purity="4.1381031274795532e-01" nType="0">
          <Node pos="l" depth="2" NCoef="0" IVar="5" Cut="3.0873620510101318e-01" cType="1" res="2.1039329469203949e-02" rms="3.7623354792594910e-01" purity="5.6560796499252319e-01" nType="0">
            <Node pos="l" depth="3" NCoef="0" IVar="-1" Cut="0.0000000000000000e+00" cType="1" res="-8.2398708909749985e-03" rms="3.8139960169792175e-01" purity="4.2459356784820557e-01" nType="-99"/>
            <Node pos="r" depth="3" NCoef="0" IVar="-1" Cut="0.0000000000000000e+00" cType="1" res="1.5684533864259720e-02" rms="3.6903735995292664e-01" purity="6.5902572870254517e-01" nType="-99"/>
          </Node>
          <Node pos="r" depth="2" NCoef="0" IVar="6" Cut="5.1401221752166748e-01" cType="1" res="-4.8062618821859360e-02" rms="3.6332091689109802e-01" purity="3.3657294511795044e-01" nType="0">
            <Node pos="l" depth="3" NCoef="0" IVar="-1" Cut="0.0000000000000000e+00" cType="1" res="-3.2667890191078186e-02" rms="3.3778557181358337e-01" purity="2.0833852887153625e-01" nType="-99"/>
            <Node pos="r" depth="3" NCoef="0" IVar="-1" Cut="0.0000000000000000e+00" cType="1" res="9.0576475486159325e-03" rms="3.8071563839912415e-01" purity="5.1032996177673340e-01" nType="-99"/>
          </Node>
        </Node>
      </Node>
    </BinaryTree>
    <BinaryTree type="DecisionTree" boostWeight="1.0000000000000000e+00" itree="32">
      <Node pos="s" depth="0" NCoef="0" IVar="4" Cut="6.3726507127285004e-02" cType="1" res="4.2664851061999798e-03" rms="3.6827245354652405e-01" purity="5.0491219758987427e-01" nType="0">
        <Node pos="l" depth="1" NCoef="0" IVar="6" Cut="-9.3126335144042969e+00" cType="1" res="-6.2873020768165588e-02" rms="2.9850968718528748e-01" purity="1.4411681890487671e-01" nType="0">
          <Node pos="l" depth="2" NCoef="0" IVar="-1" Cut="0.0000000000000000e+00" cType="1" res="-1.0346074588596821e-02" rms="3.5868105292320251e-01" purity="2.3787175118923187e-01" nType="-99"/>
          <Node pos="r" depth="2" NCoef="0" IVar="4" Cut="2.9020780697464943e-02" cType="1" res="-7.7787339687347412e-02" rms="2.6039028167724609e-01" purity="9.5141910016536713e-02" nType="0">
            <Node pos="l" depth="3" NCoef="0" IVar="-1" Cut="0.0000000000000000e+00" cType="1" res="-3.4562520682811737e-02" rms="2.4923829734325409e-01" purity="8.4734484553337097e-02" nType="-99"/>
            <Node pos="r" depth="3" NCoef="0" IVar="-1" Cut="0.0000000000000000e+00" cType="1" res="-2.6217175647616386e-02" rms="2.7116850018501282e-01" purity="1.0605932027101517e-01" nType="-99"/>
          </Node>
        </Node>
        <Node pos="r" depth="1" NCoef="0" IVar="14" Cut="2.3363790512084961e+00" cType="1" res="1.7366608604788780e-02" rms="3.7901145219802856e-01" purity="5.7530987262725830e-01" nType="0">
          <Node pos="l" depth="2" NCoef="0" IVar="14" Cut="1.4675555229187012e+00" cType="1" res="-4.0142003446817398e-02" rms="3.8853916525840759e-01" purity="3.5511139035224915e-01" nType="0">
            <Node pos="l" depth="3" NCoef="0" IVar="-1" Cut="0.0000000000000000e+00" cType="1" res="-2.4147827178239822e-02" rms="3.7097790837287903e-01" purity="2.2968232631683350e-01" nType="-99"/>
            <Node pos="r" depth="3" NCoef="0" IVar="-1" Cut="0.0000000000000000e+00" cType="1" res="-4.6207909472286701e-03" rms="3.9525681734085083e-01" purity="4.1912633180618286e-01" nType="-99"/>
          </Node>
